tree
version=v3
num_class=1
num_tree_per_iteration=1
label_index=0
max_feature_idx=917
objective=binary sigmoid:1
feature_names=P_2_mean P_2_std P_2_min P_2_max P_2_last D_39_mean D_39_std D_39_min D_39_max D_39_last B_1_mean B_1_std B_1_min B_1_max B_1_last B_2_mean B_2_std B_2_min B_2_max B_2_last R_1_mean R_1_std R_1_min R_1_max R_1_last S_3_mean S_3_std S_3_min S_3_max S_3_last D_41_mean D_41_std D_41_min D_41_max D_41_last B_3_mean B_3_std B_3_min B_3_max B_3_last D_42_mean D_42_std D_42_min D_42_max D_42_last D_43_mean D_43_std D_43_min D_43_max D_43_last D_44_mean D_44_std D_44_min D_44_max D_44_last B_4_mean B_4_std B_4_min B_4_max B_4_last D_45_mean D_45_std D_45_min D_45_max D_45_last B_5_mean B_5_std B_5_min B_5_max B_5_last R_2_mean R_2_std R_2_min R_2_max R_2_last D_46_mean D_46_std D_46_min D_46_max D_46_last D_47_mean D_47_std D_47_min D_47_max D_47_last D_48_mean D_48_std D_48_min D_48_max D_48_last D_49_mean D_49_std D_49_min D_49_max D_49_last B_6_mean B_6_std B_6_min B_6_max B_6_last B_7_mean B_7_std B_7_min B_7_max B_7_last B_8_mean B_8_std B_8_min B_8_max B_8_last D_50_mean D_50_std D_50_min D_50_max D_50_last D_51_mean D_51_std D_51_min D_51_max D_51_last B_9_mean B_9_std B_9_min B_9_max B_9_last R_3_mean R_3_std R_3_min R_3_max R_3_last D_52_mean D_52_std D_52_min D_52_max D_52_last P_3_mean P_3_std P_3_min P_3_max P_3_last B_10_mean B_10_std B_10_min B_10_max B_10_last D_53_mean D_53_std D_53_min D_53_max D_53_last S_5_mean S_5_std S_5_min S_5_max S_5_last B_11_mean B_11_std B_11_min B_11_max B_11_last S_6_mean S_6_std S_6_min S_6_max S_6_last D_54_mean D_54_std D_54_min D_54_max D_54_last R_4_mean R_4_std R_4_min R_4_max R_4_last S_7_mean S_7_std S_7_min S_7_max S_7_last B_12_mean B_12_std B_12_min B_12_max B_12_last S_8_mean S_8_std S_8_min S_8_max S_8_last D_55_mean D_55_std D_55_min D_55_max D_55_last D_56_mean D_56_std D_56_min D_56_max D_56_last B_13_mean B_13_std B_13_min B_13_max B_13_last R_5_mean R_5_std R_5_min R_5_max R_5_last D_58_mean D_58_std D_58_min D_58_max D_58_last S_9_mean S_9_std S_9_min S_9_max S_9_last B_14_mean B_14_std B_14_min B_14_max B_14_last D_59_mean D_59_std D_59_min D_59_max D_59_last D_60_mean D_60_std D_60_min D_60_max D_60_last D_61_mean D_61_std D_61_min D_61_max D_61_last B_15_mean B_15_std B_15_min B_15_max B_15_last S_11_mean S_11_std S_11_min S_11_max S_11_last D_62_mean D_62_std D_62_min D_62_max D_62_last D_65_mean D_65_std D_65_min D_65_max D_65_last B_16_mean B_16_std B_16_min B_16_max B_16_last B_17_mean B_17_std B_17_min B_17_max B_17_last B_18_mean B_18_std B_18_min B_18_max B_18_last B_19_mean B_19_std B_19_min B_19_max B_19_last B_20_mean B_20_std B_20_min B_20_max B_20_last S_12_mean S_12_std S_12_min S_12_max S_12_last R_6_mean R_6_std R_6_min R_6_max R_6_last S_13_mean S_13_std S_13_min S_13_max S_13_last B_21_mean B_21_std B_21_min B_21_max B_21_last D_69_mean D_69_std D_69_min D_69_max D_69_last B_22_mean B_22_std B_22_min B_22_max B_22_last D_70_mean D_70_std D_70_min D_70_max D_70_last D_71_mean D_71_std D_71_min D_71_max D_71_last D_72_mean D_72_std D_72_min D_72_max D_72_last S_15_mean S_15_std S_15_min S_15_max S_15_last B_23_mean B_23_std B_23_min B_23_max B_23_last D_73_mean D_73_std D_73_min D_73_max D_73_last P_4_mean P_4_std P_4_min P_4_max P_4_last D_74_mean D_74_std D_74_min D_74_max D_74_last D_75_mean D_75_std D_75_min D_75_max D_75_last D_76_mean D_76_std D_76_min D_76_max D_76_last B_24_mean B_24_std B_24_min B_24_max B_24_last R_7_mean R_7_std R_7_min R_7_max R_7_last D_77_mean D_77_std D_77_min D_77_max D_77_last B_25_mean B_25_std B_25_min B_25_max B_25_last B_26_mean B_26_std B_26_min B_26_max B_26_last D_78_mean D_78_std D_78_min D_78_max D_78_last D_79_mean D_79_std D_79_min D_79_max D_79_last R_8_mean R_8_std R_8_min R_8_max R_8_last R_9_mean R_9_std R_9_min R_9_max R_9_last S_16_mean S_16_std S_16_min S_16_max S_16_last D_80_mean D_80_std D_80_min D_80_max D_80_last R_10_mean R_10_std R_10_min R_10_max R_10_last R_11_mean R_11_std R_11_min R_11_max R_11_last B_27_mean B_27_std B_27_min B_27_max B_27_last D_81_mean D_81_std D_81_min D_81_max D_81_last D_82_mean D_82_std D_82_min D_82_max D_82_last S_17_mean S_17_std S_17_min S_17_max S_17_last R_12_mean R_12_std R_12_min R_12_max R_12_last B_28_mean B_28_std B_28_min B_28_max B_28_last R_13_mean R_13_std R_13_min R_13_max R_13_last D_83_mean D_83_std D_83_min D_83_max D_83_last R_14_mean R_14_std R_14_min R_14_max R_14_last R_15_mean R_15_std R_15_min R_15_max R_15_last D_84_mean D_84_std D_84_min D_84_max D_84_last R_16_mean R_16_std R_16_min R_16_max R_16_last B_29_mean B_29_std B_29_min B_29_max B_29_last S_18_mean S_18_std S_18_min S_18_max S_18_last D_86_mean D_86_std D_86_min D_86_max D_86_last D_87_mean D_87_std D_87_min D_87_max D_87_last R_17_mean R_17_std R_17_min R_17_max R_17_last R_18_mean R_18_std R_18_min R_18_max R_18_last D_88_mean D_88_std D_88_min D_88_max D_88_last B_31_mean B_31_std B_31_min B_31_max B_31_last S_19_mean S_19_std S_19_min S_19_max S_19_last R_19_mean R_19_std R_19_min R_19_max R_19_last B_32_mean B_32_std B_32_min B_32_max B_32_last S_20_mean S_20_std S_20_min S_20_max S_20_last R_20_mean R_20_std R_20_min R_20_max R_20_last R_21_mean R_21_std R_21_min R_21_max R_21_last B_33_mean B_33_std B_33_min B_33_max B_33_last D_89_mean D_89_std D_89_min D_89_max D_89_last R_22_mean R_22_std R_22_min R_22_max R_22_last R_23_mean R_23_std R_23_min R_23_max R_23_last D_91_mean D_91_std D_91_min D_91_max D_91_last D_92_mean D_92_std D_92_min D_92_max D_92_last D_93_mean D_93_std D_93_min D_93_max D_93_last D_94_mean D_94_std D_94_min D_94_max D_94_last R_24_mean R_24_std R_24_min R_24_max R_24_last R_25_mean R_25_std R_25_min R_25_max R_25_last D_96_mean D_96_std D_96_min D_96_max D_96_last S_22_mean S_22_std S_22_min S_22_max S_22_last S_23_mean S_23_std S_23_min S_23_max S_23_last S_24_mean S_24_std S_24_min S_24_max S_24_last S_25_mean S_25_std S_25_min S_25_max S_25_last S_26_mean S_26_std S_26_min S_26_max S_26_last D_102_mean D_102_std D_102_min D_102_max D_102_last D_103_mean D_103_std D_103_min D_103_max D_103_last D_104_mean D_104_std D_104_min D_104_max D_104_last D_105_mean D_105_std D_105_min D_105_max D_105_last D_106_mean D_106_std D_106_min D_106_max D_106_last D_107_mean D_107_std D_107_min D_107_max D_107_last B_36_mean B_36_std B_36_min B_36_max B_36_last B_37_mean B_37_std B_37_min B_37_max B_37_last R_26_mean R_26_std R_26_min R_26_max R_26_last R_27_mean R_27_std R_27_min R_27_max R_27_last D_108_mean D_108_std D_108_min D_108_max D_108_last D_109_mean D_109_std D_109_min D_109_max D_109_last D_110_mean D_110_std D_110_min D_110_max D_110_last D_111_mean D_111_std D_111_min D_111_max D_111_last B_39_mean B_39_std B_39_min B_39_max B_39_last D_112_mean D_112_std D_112_min D_112_max D_112_last B_40_mean B_40_std B_40_min B_40_max B_40_last S_27_mean S_27_std S_27_min S_27_max S_27_last D_113_mean D_113_std D_113_min D_113_max D_113_last D_115_mean D_115_std D_115_min D_115_max D_115_last D_118_mean D_118_std D_118_min D_118_max D_118_last D_119_mean D_119_std D_119_min D_119_max D_119_last D_121_mean D_121_std D_121_min D_121_max D_121_last D_122_mean D_122_std D_122_min D_122_max D_122_last D_123_mean D_123_std D_123_min D_123_max D_123_last D_124_mean D_124_std D_124_min D_124_max D_124_last D_125_mean D_125_std D_125_min D_125_max D_125_last D_127_mean D_127_std D_127_min D_127_max D_127_last D_128_mean D_128_std D_128_min D_128_max D_128_last D_129_mean D_129_std D_129_min D_129_max D_129_last B_41_mean B_41_std B_41_min B_41_max B_41_last B_42_mean B_42_std B_42_min B_42_max B_42_last D_130_mean D_130_std D_130_min D_130_max D_130_last D_131_mean D_131_std D_131_min D_131_max D_131_last D_132_mean D_132_std D_132_min D_132_max D_132_last D_133_mean D_133_std D_133_min D_133_max D_133_last R_28_mean R_28_std R_28_min R_28_max R_28_last D_134_mean D_134_std D_134_min D_134_max D_134_last D_135_mean D_135_std D_135_min D_135_max D_135_last D_136_mean D_136_std D_136_min D_136_max D_136_last D_137_mean D_137_std D_137_min D_137_max D_137_last D_138_mean D_138_std D_138_min D_138_max D_138_last D_139_mean D_139_std D_139_min D_139_max D_139_last D_140_mean D_140_std D_140_min D_140_max D_140_last D_141_mean D_141_std D_141_min D_141_max D_141_last D_142_mean D_142_std D_142_min D_142_max D_142_last D_143_mean D_143_std D_143_min D_143_max D_143_last D_144_mean D_144_std D_144_min D_144_max D_144_last D_145_mean D_145_std D_145_min D_145_max D_145_last B_30_count B_30_last B_30_nunique B_38_count B_38_last B_38_nunique D_114_count D_114_last D_114_nunique D_116_count D_116_last D_116_nunique D_117_count D_117_last D_117_nunique D_120_count D_120_last D_120_nunique D_126_count D_126_last D_126_nunique D_63_count D_63_last D_63_nunique D_64_count D_64_last D_64_nunique D_66_count D_66_last D_66_nunique D_68_count D_68_last D_68_nunique
feature_infos=[-0.16829779744148254:1.0063518285751343] [0.001401972768866379:0.2970786200037735] [-0.25692117214202881:1.0005562305450439] [-0.051477335393428802:1.0099260807037354] [-0.25692117214202881:1.0097618103027344] [0:37.769230769230766] [0:44.928005086200315] [0:31] [0:145] [0:93] [-0.010232954286038876:1.3202202320098877] [0.00012863218165524859:0.56624753362216129] [-0.14146898686885834:1.3183540105819702] [0.0037119772750884295:1.3234111070632935] [-0.00088631629478186369:1.3189334869384766] [0.0035252964589744806:1.0077162981033325] [0.0010298384870284561:0.70501554692430424] [3.8322115869959816e-05:1.0031261444091797] [0.0035252964589744806:1.0099987983703613] [0.00040605623507872224:1.0098584890365601] [0.0012610811972990632:1.0050522089004517] [0.00070561134251275219:0.87440177053036783] [3.0311798582260963e-06:0.75006347894668579] [0.0013848398812115192:2.502415657043457] [2.802730341500137e-05:2.0027244091033936] [-0.083273753523826599:1.5121182203292847] [0.00058282769463289814:0.64805142376481362] [-0.16116462647914886:1.3491126298904419] [-0.028656993061304092:1.8035485744476318] [-0.13074305653572083:1.7919859886169434] [0:1.5953384637832642] [0:0.94933516449624078] [0:0.63075298070907593] [0:2.5927679538726807] [0:2.5927679538726807] [0.00025124059175141156:1.1490741968154907] [0.00059784604909163448:0.44485921319363042] [2.6073687422467628e-06:1.1216636896133423] [0.00025124059175141156:1.185017466545105] [2.2527454348164611e-05:1.1712601184844971] [0.0022947576362639666:1.0637315511703491] [0.00016519457273844916:0.22421785355353113] [0.00069691403768956661:1.0637315511703491] [0.0022947576362639666:1.0637315511703491] [0.0019480325281620026:1.0637315511703491] [0.0013932152651250362:1.147281289100647] [0.00063020330421911146:0.91106953731107687] [9.5585746748838574e-06:0.68790972232818604] [0.0018388363532721996:2.3204336166381836] [9.5585746748838574e-06:2.0603482723236084] [-1:13.076923076923077] [0:4.1633319989322652] [-1:11] [-1:17] [-1:17] [0:158.07692307692307] [0:34.773995589100331] [0:144] [0:170] [0:155] [0.00034666559076867998:1.3378794193267822] [0.00077399526276618574:0.2452001730836835] [5.5012169468682259e-05:1.3244638442993164] [0.00034666559076867998:1.3492674827575684] [0.00034666559076867998:1.3492674827575684] [0.0022360482253134251:4.1756982803344727] [4.3610792952139616e-05:3.6957500684010491] [6.5588355937507004e-06:1.0332313776016235] [0.0022360482253134251:12.97442626953125] [1.4070440556679387e-05:6.4822273254394531] [0:1] [0:0.57735026918962584] none [0:1] [0:1] [0.12138791382312775:1.1937086582183838] [0.00010821203355172043:0.80568398549121933] [-1.1851911544799805:0.77498501539230347] [0.27459040284156799:2.0813674926757813] [-1.0079549551010132:1.2982577085494995] [-0.01091776043176651:1.2573546171188354] [0.00051593010933398159:0.38053493241410857] [-0.026447122916579247:1.2480202913284302] [-0.0095271961763501167:1.2687548398971558] [-0.012308324687182903:1.2687548398971558] [-0.0058531654067337513:1.1977293491363525] [0.0003680262811971267:0.50834128724507888] [-0.0095483940094709396:1.194230318069458] [-0.0040720812976360321:1.596015453338623] [-0.0092354211956262589:1.2411983013153076] [-1:74.200000000000003] [0:39.960536088051228] [-1:31] [-1:100] [-1:85] [0.002403258578851819:2.2655277252197266] [0.00017449783100272103:5.6081132343955415] [-0.0021215197630226612:0.73521989583969116] [0.0069186300970613956:20.331216812133789] [0.00054258055752143264:2.4713506698608398] [0.0051791556179523468:1.1702721118927002] [0.0012751621213202106:0.5342375205783324] [-0.096912793815135956:1.0916205644607544] [0.0085638910531997681:1.2523943185806274] [0.0012085125781595707:1.1859157085418701] [0:1.0087196826934814] [0:0.52530488219794447] [0:1.0087196826934814] [0:1.0100653171539307] [0:1.0100313425064087] [-0.35005477070808411:7.8572487831115723] [0.00019705759021268503:8.1602592846637734] [-0.60334241390228271:0.81287246942520142] [-0.12173224985599518:19.979745864868164] [-0.32796546816825867:19.979745864868164] [0:5.615384615384615] [0:1.0681880176381129] [0:5] [0:6] [0:5] [0.0010042847134172916:1.5050336122512817] [0.00061510208754113761:1.1306315144955204] [1.3310645954334177e-06:0.97912514209747314] [0.0010042847134172916:3.9874098300933838] [1.4686480426462367e-05:2.309689998626709] [0:11.833333333333334] [0:5.9236596449951096] [0:9] [0:18] [0:18] [0.00047959591029211879:1.0069990158081055] [3.2737564580836938e-05:0.47290326080539341] [-0.0049734567292034626:1.0069990158081055] [0.003722785972058773:1.0099844932556152] [-0.0049734567292034626:1.0099388360977173] [-0.9346153736114502:1.149730920791626] [0.00051258997158949325:0.5434813625719781] [-0.9346153736114502:1.0939675569534302] [-0.9346153736114502:1.7438900470733643] [-0.9346153736114502:1.3021050691604614] [0.00051964377053081989:6.1336870193481445] [0.00072533145780429465:10.566491434095084] [-0.0029387159738689661:0.65482735633850098] [0.0012848100159317255:28.405557632446289] [0.0012848100159317255:20.238534927368164] [0.00052190676797181368:1.5145403146743774] [0.00060582182053954537:1.0323862467937732] [5.9093117670272477e-06:0.92765766382217407] [0.0009502875036559999:3.2452590465545654] [8.184540638467297e-05:2.3591930866241455] [0.00011228287621634081:5.3904657363891602] [0.00023250650496909575:2.2590903390485386] [1.2740720194415189e-06:1.4548697471618652] [0.00011228287621634081:8.5319595336914063] [8.7288453869405203e-06:6.516972541809082] [0.0011906960280612111:1.3917868137359619] [0.0005417103033706225:0.6102145115008909] [1.1175419558639987e-06:1.3913377523422241] [0.0011906960280612111:1.3922359943389893] [2.8351254513836466e-05:1.3922359943389893] [0:1] [0:0.57735026918962584] [0:1] [0:1] [0:1] [0.003556273877620697:1] [0:0.51676431516871801] [-0.0019223573617637157:1] none [-0.0016928507247939706:1] [0:1] [0:0.57735026918962584] none [0:1] [0:1] [-0.062299471348524094:1.3746322393417358] [0.00092175157693325242:0.5188998516420924] [-0.13414815068244934:1.2580174207687378] [-0.018965128809213638:1.5596696138381958] [-0.088058210909366608:1.4985029697418213] [0.0011773664737120271:5.0088601112365723] [0.00077243813427706057:0.458167912010566] [2.0173461962258443e-05:4.4125857353210449] [0.0011773664737120271:5.6706843376159668] [0.00076974905095994473:5.2939801216125488] [0:3337.3846153846152] [0:1842.8640752915012] [0:2896] [0:3867] [0:3867] [0.0033481218852102757:1.0407730340957642] [0.0013362907376827614:0.29836237735074755] [1.4430000192078296e-05:1.0332518815994263] [0.0046190787106752396:1.0511568784713745] [1.4430000192078296e-05:1.0511568784713745] [-0.0088739320635795593:2.0557458400726318] [0.00035523471267407037:0.26438275980208997] [-0.011562895029783249:2.0557458400726318] [-0.0075067160651087761:2.0557458400726318] [-0.007562155369669199:2.0557458400726318] [0.0018674611346796155:3.8853445053100586] [0.00035062183024546116:2.1021009318235588] [2.3881727884145221e-07:2.6083524227142334] [0.0018674611346796155:5.2346286773681641] [1.9812008758890443e-05:3.8231205940246582] [0:5.384615384615385] [0:5.2525939867596456] none [0:15] [0:9] [0.00044178430107422173:1.1798253059387207] [0.0009822133978209047:0.37703818594703298] [1.270789425689145e-06:1.1220972537994385] [0.00044178430107422173:1.2134945392608643] [5.4870717576704919e-05:1.147594690322876] [0.00074897712329402566:2.6711182594299316] [9.1596297070808432e-05:0.91462758632882679] [8.969890586740803e-06:2.5711450576782227] [0.00074897712329402566:2.76473069190979] [8.969890586740803e-06:2.5711450576782227] [-0.00054695596918463707:3.4289357662200928] [0.00041858142598594407:0.8436128748579893] [-0.044153913855552673:2.3290002346038818] [0.00017521239351481199:4.8239898681640625] [-0.0026841307990252972:4.4626970291137695] [-1:66.692307692307693] [0:22.627416997969522] [-1:63] [-1:75] [-1:68] [0.0017425016267225146:1.0095903873443604] [0.0017219270316645829:0.52610899267435052] [2.2555528630618937e-05:1.0095903873443604] [0.0017425016267225146:1.0099958181381226] [2.3098646124708466e-05:1.0099614858627319] [-0.0061052953824400902:1.7630120515823364] [0.00032111683880450164:0.47640003248875595] [-0.0092391408979892731:1.2788858413696289] [-0.0054214815609157085:1.8887606859207153] [-0.0088236508890986443:1.8843729496002197] [-0.0033570029772818089:4.0522136688232422] [0.00056128670377678341:0.99813778146454812] [-0.053377974778413773:2.7457015514373779] [0.0022705006413161755:5.7038917541503906] [2.7651796585814736e-07:5.2749147415161133] [2:34] [0:14.011899704655804] [0:34] [2:60] [2:41] [0.0026751141995191574:1.2521803379058838] [5.1155737380097629e-05:1.1024623532170585] [-0.0015511709498241544:1.2476141452789307] [0.0068525546230375767:3.153423547744751] [-0.00032253679819405079:1.4121649265289307] [0:81.461538461538467] [0:88.865426925008933] none [0:207] [0:125] [0:12] [0:4.3896731961765409] [0:12] [0:12] [0:12] [0.0028894238639622927:1.0099425315856934] [6.2040161008036014e-05:0.70767916996291214] [3.0616035928687779e-06:1.0099425315856934] [0.0047799232415854931:1.0099971294403076] [3.0616035928687779e-06:1.0099750757217407] [0.0037715604994446039:1] [0:0.43409139770933636] [4.3698462832253426e-05:1] [0.0083901667967438698:1] [8.5496496467385441e-05:1] [0:100] [0:57.735026918962575] [0:100] [0:100] [0:100] [0:17] [0:8.820866868267105] [0:17] [0:17] [0:17] [0.10552550852298737:1.5507794618606567] [0.00044807368323144218:4.5664372405013873] [-0.30285263061523438:0.22325699031352997] [0.18441994488239288:16.746990203857422] [-0.25290787220001221:16.746990203857422] [5.7422144891461357e-05:6.9546842575073242] [2.9556794607280405e-05:5.4909643098377661] [2.2871518012834713e-06:5.6573729515075684] [5.7422144891461357e-05:14.44645881652832] [1.9601338863139972e-05:14.439718246459961] [0:1034] [0:474.30482192632633] [0:1034] [0:1034] [0:1034] [0.0015523056499660015:9.8780269622802734] [0.00039101936269334334:5.9448689140675937] [1.9990537225567095e-07:9.8780269622802734] [0.0015523056499660015:13.496953010559082] [2.0512084120127838e-06:13.492959976196289] [0.00068149325670674443:44.566020965576172] [0.00084183355088549158:22.031771600288124] [2.5975516564358259e-06:9.8268547058105469] [0.00068149325670674443:54.472469329833984] [3.9183596527436748e-06:54.467071533203125] [0:2] [0:1.3562026818605375] [0:2] [0:3] [0:3] [-1:7] [0:4.8051788301522755] [-1:5] [-1:13] [-1:13] [0.00070312526077032089:7.2929635047912598] [0.00014869474009094214:2.6021861576135166] [6.3292070990428329e-05:7.2887020111083984] [0.00070312526077032089:9.9127397537231445] [0.00031663340632803738:7.2946815490722656] [-1:9] [0:4.0934594484873381] [-1:9] [-1:9] [-1:9] [2.9230769230769229:18] [0:10.212737145349429] [0:18] [3:32] [2:18] [0.0014717307640239596:1.129669189453125] [0.00055262289222976274:0.51747584684443637] [8.7566741058253683e-06:1.0552946329116821] [0.0014717307640239596:1.2875899076461792] [1.8284135876456276e-05:1.115156888961792] [0.0010835024295374751:0.57895022630691528] [0.0013037805826114372:0.0035821888414467634] [0.00016159038932528347:0.57729071378707886] [0.0020054145716130733:0.58064359426498413] [0.00016159038932528347:0.57891631126403809] [0:1.0052955150604248] [0:0.52838880066484939] [0:0.96867704391479492] [0:1.1481884717941284] [0:1.0307046175003052] [-1:30.46153846153846] [0:6.139406135149204] [-1:28] [-1:32] [-1:30] [0:30.46153846153846] [0:6.139406135149204] [0:28] [0:32] [0:30] [0.0022944384254515171:0.95064020156860352] [0.0005945732955482503:0.13563969509282142] [1.9163687738910085e-06:0.94688087701797485] [0.0022944384254515171:0.95458847284317017] [0.00095292349578812718:0.95010834932327271] [0.002039577579125762:2.403203010559082] [0.00026490461490586629:2.6442628535924708] [5.9126076479287804e-08:1.3868379592895508] [0.002039577579125762:7.932835578918457] [2.0058942027390003e-05:7.932835578918457] [0:7.627479076385498] [0:14.157447217918296] none [0:43.526870727539063] [0:27.081842422485352] [0.00035963769187219441:1.1576570272445679] [1.0418174116286619e-05:1.0141719330715975] [7.1922433562576771e-05:1.1524403095245361] [0.00035963769187219441:2.9078433513641357] [0.00035963769187219441:1.3058744668960571] [0.0012079523876309395:1.765162467956543] [0.00014443724984683384:0.58241269815298746] [-0.082131162285804749:1.7294595241546631] [0.0012079523876309395:2.0961320400238037] [-0.0044448943808674812:1.9293769598007202] [0.00018266034021507949:13.680810928344727] [0.00044263888004318776:40.347479751836403] [1.0017696467912174e-06:0.008967934176325798] [0.00018266034021507949:145.47950744628906] [7.6180826908966992e-06:3.6349806785583496] [-1:3.5] [0:2.2130151145972539] [-1:3] [-1:6] [-1:6] [-1:3.3076923076923075] [0:1.4142135623730951] [-1:3] [-1:4] [-1:4] [0:3.5] [0:3.5355339059327378] none [0:10] [0:6] [-1:6] [0:2.3011854652449344] [-1:6] [-1:6] [-1:6] [0.0013656887458637357:5.328946590423584] [0.0007824750111232252:4.2061524733650772] [4.0293264191859635e-07:2.8462357521057129] [0.0013656887458637357:13.598973274230957] [7.2232637648994569e-06:10.520112037658691] [-1:8.9230769230769234] [0:2.5599944196367748] [-1:6] [-1:11] [-1:10] [0:1.8] [0:1.5] none [0:5] [0:4] [0:1.625] [0:2.1926450482675728] none [0:8] [0:2] [0.00036046336754225194:0.0092623438686132431] [0.00035017792470114087:0.0049047542139415094] [6.9819691361772129e-07:0.0089892428368330002] [0.00036046336754225194:0.015750374644994736] [2.0567988030961715e-05:0.011321236379444599] [-1:4.5384615384615383] [0:2.5038431998091992] [-1:2] [-1:7] [-1:7] [-1:2] [0:1.009049958219026] [-1:2] [-1:2] [-1:2] [0.00011240065941819921:2.3854262828826904] [0.00035426731079184372:1.9036751870514534] [4.2803719679795904e-07:0.7639281153678894] [0.00011240065941819921:4.0471739768981934] [3.4785480238497257e-06:4.0413923263549805] [-0.0050784051418304443:1] [0:0.55855089604378572] [-0.090165555477142334:1] none [-0.090165555477142334:1] [0.00416904641315341:1.6509898900985718] [0.00023751658914961937:0.39777289320703862] [3.9199752791319042e-05:1.259160041809082] [0.0070051401853561401:2.3076157569885254] [0.0007213058415800333:2.1447901725769043] [0:1.8461538461538463] [0:3.2105595007244934] none [0:11] [0:7] [-1:4.416666666666667] [0:2.8749176536296677] [-1:1] [-1:6] [-1:6] [0:32.775848388671875] [0:83.325594256897659] none [0:278.923095703125] [0:143.57060241699219] [0:0.66666666666666663] [0:0.57735026918962584] none [0:1] [0:1] [-1:6.9230769230769234] [0:4.4807279628340613] [-1:1] [-1:13] [-1:10] [0:1.75] [0:2.4007574562284222] none [0:8] [0:8] [0.0026535817887634039:0.062830865383148193] [0.0016346086954185117:0.15691723688137624] [3.7236513890093192e-05:0.0042919153347611427] [0.0069646229967474937:0.54967707395553589] [4.3544452637434006e-05:0.009923422709107399] [0:1] [0:0.51887452166277082] none [0:1] none [0:1] [0:0.53452248382484879] none [0:1] [0:1] none [0:1.0377490433255416] none none none [0:1.3076923076923077] [0:2.5943726083138539] none [0:8] [0:3] none [0:0] none none none none none none none none [0.54545454545454541:1] [0:0.5222329678670935] [0:1] none none [0.00019118064665235579:0.01911182701587677] [0.00029694858463378984:0.018706325684568904] [1.2842414776059741e-07:0.0094668120145797729] [0.00019118064665235579:0.06855156272649765] [2.7875407795363571e-06:0.042844627052545547] [0:1] [0:0.70710678118654757] none [0:1] [0:1] [0:1] [0:0.51887452166277082] none [0:1] [0:1] [0:0.84615384615384615] [0:0.70710678118654757] none [0:1] [0:1] [-0.076923076923076927:4.3076923076923075] [0:5.7668371102719949] none [0:17] [0:11] [0:1] [0:0.70710678118654757] none [0:1] [0:1] [0:1] [0:0.70710678118654757] [0:1] [0:1] [0:1] [-1:1.3076923076923077] [0:2.2130151145972539] [-1:0] [-1:7] [-1:4] [0:0.30769230769230771] [0:0.48038446141526137] none [0:1] none none [0:0.27735009811261452] none none none [-1:3] [0:0.9540735874430285] [-1:3] [-1:4] [-1:3] [0:1.7692307692307692] [0:0.76794764778830449] [0:1] [0:2] [0:2] [0:1] [0:0.51887452166277082] none [0:1] none [0:1] [0:0.51887452166277082] none [0:1] [0:1] [0:0.69230769230769229] [0:0.53452248382484879] none [0:1] [0:1] [0:0.45454545454545453] [0:0.5222329678670935] none [0:1] none [0:1] [0:0.51887452166277082] none [0:1] [0:1] [-4.1409463882446289:1.0252969264984131] [0.0016502429672664016:16.71210342968034] [-59.754726409912109:1.0081731081008911] [0.04362139105796814:1.0320029258728027] [0.0020559064578264952:1.0284441709518433] [-0.18713238835334778:2.3846564292907715] [0.00039713690762740382:5.8426051520658602] [-4.0833334922790527:0.98926323652267456] [0.13115566968917847:9.2147207260131836] [-0.54295647144317627:5.3887715339660645] [-4.8162407875061035:1.0204203128814697] [0.00082436863851499296:18.619763316740105] [-66.773170471191406:0.99657672643661499] [0.0093116629868745804:1.0373209714889526] [0.00097259477479383349:1.0351995229721069] [0.1263764500617981:1.3128573894500732] [0.00078612301842519551:1.0780310837165348] [-2.4475655555725098:1.0914127826690674] [0.32540717720985413:1.6827375888824463] [-0.86470603942871094:1.4478483200073242] [0.00091639801394194365:3.3316695690155029] [0.00030009585115550275:0.8991042561661331] [9.1398521817609435e-07:2.4404280185699463] [0.00091639801394194365:4.8003683090209961] [1.4206347032086342e-06:2.6944530010223389] [0.00091428589075803757:0.97279375791549683] [0.0013343270770063941:0.55312341479090144] [2.8758290682162624e-06:0.86562430858612061] [0.00091428589075803757:1.0890777111053467] [2.0119929104112089e-05:1.0863386392593384] [-1:1] [0:1.4142135623730951] [-1:1] [-1:1] [-1:1] [0:1.0096056461334229] [0:0.52326353368020651] [0:1.0041180849075317] [0:1.0590808391571045] [0:1.0590808391571045] [-0.00010576576460152864:1.6274560689926147] [0.00010145800107784966:0.37908403270896851] [-0.015239248983561993:1.5393158197402954] [0.011364517733454704:1.7157090902328491] [-0.0010231173364445567:1.7157090902328491] [-1:21.800000000000001] [0:15.512002521345277] [-1:17] [-1:33] [-1:32] [-1:3.875] [0:1.9518001458970664] [-1:3] [-1:5] [-1:4] [0.00025410088710486889:0.27771902084350586] [2.3749419863634795e-05:0.20555083272761934] [1.7849987443696591e-06:0.0096539938822388649] [0.00025410088710486889:0.51747530698776245] [1.9028104361495934e-05:0.35355329513549805] [-0.010913939215242863:1.3252277374267578] [0.00034391828384889531:0.5681629187190308] [-0.13479329645633698:1.3249845504760742] [0.0016687988536432385:1.3254709243774414] [0.00011233190889470279:1.3254709243774414] [-1:14] [0:1.5566235649883124] [-1:14] [-1:14] [-1:14] [-0.0023934843484312296:1.0078091621398926] [0.00028141933527989644:0.52225539893743189] [-0.011882326565682888:1.007399320602417] [0.0041847014799714088:1.0099996328353882] [-0.003942068200558424:1.0099941492080688] [-1:-0.5] [0:0.92582009977255142] none [-1:1] none none [0:0.27735009811261452] none none none none none none none none none [0:1.4411533842457842] none none none none none none none none [0.0049499454908072948:1] [0:0.57469575482322766] [5.6364904594374821e-05:1] [0.0092690270394086838:1] [0.00011354879097780213:1] [0.0034204102121293545:5.4980077743530273] [0.00036122746769671311:9.2683683227991338] [7.2294478741241619e-06:0.88489079475402832] [0.0034204102121293545:30.609348297119141] [0.00020231117377988994:30.609348297119141] [9.9071359727531672e-05:4.4438691139221191] [0.00013035987317194125:2.3098854299638685] [2.0020981992274756e-06:4.351384162902832] [9.9071359727531672e-05:4.6304597854614258] [3.0580220482079312e-05:4.351384162902832] [-1:5.9230769230769234] [0:3.1304951684997055] [-1:5] [-1:7] [-1:6] [0.0046088485978543758:1.2641135454177856] [0.0010288421521167184:0.57671761647423747] [1.2840198905905709e-05:1.2547681331634521] [0.0050545665435492992:1.2832522392272949] [0.001188550260849297:1.2832522392272949] [0.0044639324769377708:1.2465922832489014] [0.00073836630994995357:0.5689299138918158] [1.6360781955881976e-05:1.2349108457565308] [0.0071021346375346184:1.2642505168914795] [0.00018023727170657367:1.2642505168914795] [0.0027692609000951052:1.2480959892272949] [0.0011084067309765778:0.57136952305513133] [2.6786603484652005e-05:1.2399023771286011] [0.0046410299837589264:1.2677505016326904] [0.0011138207046315074:1.2677505016326904] [-0.028086405247449875:1.1220426559448242] [0.00013214623077462611:0.32276819041558996] [-0.031938463449478149:1.1114137172698975] [-0.024781208485364914:1.1362346410751343] [-0.030810847878456116:1.1362346410751343] [-1:9.8888888888888893] [0:3.5355339059327378] [-1:9] [-1:10] [-1:10] [-1:1.2] [0:1.3038404810405297] [-1:0] [-1:2] [-1:1] [-1:29.692307692307693] [0:12.727922061357855] [-1:29] [-1:32] [-1:29] [-1:1.9230769230769231] [0:1.3416407864998738] [-1:1] [-1:3] [-1:2] [0:1] [0:0.70710678118654757] [0:1] [0:1] [0:1] [0:1.0088390111923218] [0:0.53623544773002774] [0:1.0088390111923218] [0:1.0101499557495117] [0:1.0096986293792725] [-1:1] [0:1.4142135623730951] [-1:1] [-1:1] [-1:1] [-0.076923076923076927:4.8461538461538458] [0:3.3626912299068294] none [0:7] [0:2] [0.0052352105267345905:0.15807601809501648] [0.0021275070917635289:0.065529975034403276] [0.00016467373643536121:0.1093803271651268] [0.0083453943952918053:0.1738271564245224] [0.00016467373643536121:0.15591472387313843] [0:1.0087460279464722] [0:0.53082834954623759] [0:1.0087460279464722] [0:1.0109822750091553] [0:1.0107359886169434] [0:1.0273129940032959] [0:0.53471670218334699] [0:1.0179263353347778] [0:1.178156852722168] [0:1.1719861030578613] [0.0078445300459861755:2.3000216484069824] [0.0039612268750350461:0.17952011291607389] [-0.010452114045619965:2.2466385364532471] [0.014436556026339531:2.3604657649993896] [0.014436556026339531:2.3604657649993896] [0.00011863093095598742:1.5041872262954712] [0.00045028277078347018:0.70894093361113497] [1.2776432640748681e-06:1.5012246370315552] [0.00011863093095598742:1.5085408687591553] [1.1742514288926031e-05:1.5029819011688232] none [0:0] none none none [-0.0068139261566102505:1.0070192813873291] [0.00073019415045123912:0.28675913778904538] [-0.009623275138437748:1.0070192813873291] [-0.00079284445382654667:1.0095200538635254] [-0.00079284445382654667:1.0094783306121826] [-1:0.15384615384615385] [0:0.64086994446165568] none [-1:1] [-1:1] [-1:3.9230769230769229] [0:1.6908501882113505] none [-1:5] [-1:5] [-1:0] [0:0.6504436355879909] none [-1:1] [-1:0] [-1:1.2307692307692308] [0:1.1929278784054478] none [-1:2] [-1:1] [-1:1] [0:0.89442719099991597] [-1:1] [-1:1] [-1:1] [-0.54545454545454541:1] [0:0.89442719099991597] [-1:1] [0:1] [0:1] [0:1.1683906316757202] [0:0.49879871617277333] [0:1.1661932468414307] [0:1.1694320440292358] [0:1.1692359447479248] [-0.0088041843846440315:1.4789520502090454] [0.00068041872235987321:0.17852087032597991] [-0.0088041843846440315:1.4710550308227539] [-0.0088041843846440315:1.4863821268081665] [-0.0088041843846440315:1.4826699495315552] [-1:1] [0:0.89442719099991597] [-1:1] [-1:1] [-1:1] [0.0016007281374186277:1.2255158424377441] [4.9501473576045044e-05:0.62035383574904024] [9.4813958639861085e-07:1.0515546798706055] [0.0016007281374186277:1.3432836532592773] [2.4831128939695191e-06:1.3414040803909302] [-1:19.076923076923077] [0:9.0319944130254566] [-1:15] [-1:25] [-1:17] [1:13] [0:2] [1:3] [1:13] [1:7] [1:5] [1:13] [-1:1] [1:3] [1:13] [-1:1] [1:2] [1:13] [-1:7] [1:5] [1:13] [-1:1] [1:3] [1:13] [1:2] [1:4] [1:13] [0:5] [1:3] [1:13] [-1:3] [1:4] [1:13] [-1:1] [1:2] [1:13] [-1:6] [1:4]
tree_sizes=1108 1138 1094 1107 1158 1131 1128 1170 1100 1128 1132 1140 1124 1093 1147 1145 1156 1145 1152 1127 1117 1127 1114 1160 1168 1125 1103 1119 1149 1113 1105 1134 1149 1160 1111 1147 1008 1149 1145 1142 1125 1128 1169 1128 1157 1122 1125 1093 1129 1156 1143 1119 1150 1114 1091 1145 1148 1078 1108 1136 1121 1124 1127 1143 1131 1098 1142 1138 1165 1120 1116 1107 1122 1119 1129 1119 1168 1125 1191 1148 1150 1127 1129 1166 1129 1101 1118 1113 1124 1119 1123 1127 1118 1126 1117 1120 1091 1122 1100 1154 1106 1100 1123 1099 1112 1076 1118 1131 1136 1147 1106 1126 1169 1143 1148 1124 1095 1095 1116 1105 1094 1099 1083 1143 1125 1152 1100 1136 1119 1125 1142 1120 1145 1144 1104 1141 1126 1136 1125 1162 1140 1126 1083 1123 1055 1116 1074 1110 1112 1079 1125 1116 1146 1145 1086 1153 1135 1123 1144 1126 1092 1103 1113 1087 1149 1117 1162 1130 1121 1149 1137 1128 1099 1101 1120 1083 1127 1098 1151 1099 1129 1119 1108 1156 1100 1092 1143 1107 1084 1103 1120 1151 1100 1132 1059 1119 1129 1142 1084 1128 1098 1154 1137 1140 1154 1118 1116 1131 1139 1123 1126 1081 1094 1122 1106 1087 1125 1155 1094 1125 1094 1127 1103 1099 1102 1104 1146 1113 1108 1101 1139 1140 1136 1151 1095 1098 1165 1092 1108 1109 1127 1137 1100 1126 1124 1125 1084 1085 1161 1100 1117 1125 1153 1080 1171 1133 1133 1103 1144 1058 1118 1118 1119 1175 1065 1107 1111 1163 1129 1142 1128 1095 1144 1076 1117 1103 1091 1096 1101 1077 1116 1148 1083 1138 1135 1145 1120 1143 1117 1119 1117 1108 1132 1091 1105 1127 1108 1081 1057 1091 1119 1103 1121 1117 1085 1126 1096 1105 1122 1103 1103 1113 1102 1083 1115 1105 1144 1089 1139 1120 1081 1105 1109 1079 1098 1065 1111 1111 1111 1125 1124 1127 1159 1142 1152 1081 1116 1133 1065 1125 1080 1060 1084 1097 1090 1179 1112 1117 1117 1080 1103 1122 1098 1091 1132 1129 1121 1079 1147 1067 1111 1110 1128 1110 1127 1193 1103 1120 1151 1137 1124 1094 1147 1098 1054 1103 1150 1093 1112 1082 1087 1090 1123 1075 1106 1094 1122 1083 1087 1077 1117 1153 1079 1129 1098 1144 1096 1059 1101 1123 1058 1093 1089 1112 1095 1093 1128 1113 1085 1088 1094 1149 1130 1082 1096 1118 1088 1112 1134 1097 1090 1104 1076 1098 1127 1075 1086 1127 1098 1086 1122 1091 1095 1087 1093 1113 1117 1101 1062 1078 1091 1125 1102 1116 1076 1064 1084 1062 1099 1122 1096 1118 1061 1086 1079 1089 1095 1087 1113 1094 1118 1139 1100 1127 1125 1150 1136 1098 1103 1103 1088 1105 1085 1093 1099 1115 1138 1108 1132 1107 1085 1134 1095 1107 1079 1099 1093 1129 1090 1122 1097 1062 1103 1116 1136 1089 1085 1057 1099 1104 1091 1098 1111 1120 1071 1080 1123 1132 1119 1099 1079 1109 1114 1097 1104 1094 1125 1120 1112 1109 1119 1084 1105 1082 1094 1123 1128 1115 1093 1088 1097 1091 1101 1076 1123 1121 1109 1120 1103 1118 1062 1085 1065 1097 1093 1100 1080 1109 1104 1062 1111 1113 1118 1069 1105 1090 1120 1124 1089 1083 1077 1086 1084 1086 1145 1046 1093 1100 1119 1110 1126 1094 1094 1075 1089 1091 1091 995 1089 1107 1099 1105 1116 1131 1092 1087 1136 1112 1072 1105 1073 1082 1103 1059 1085 1098 1080 1093 1090 1106 1113 1079 1086 1134 1067 1085 1096 1107 1054 1076 1109 1102 1097 1075 1086 1083 1078 1122 1085 1086 1077 1082 1081 1070 1081 1106 1080 1073 1079 1101 1088 1087 1100 1092 1115 1089 1105 1082 1115 1096 807 1078 1073 1121 1118 1103 1078 1119 1105 1084 1084 1082 1103 1100 1118 1060 1087 1083 1062 1084 1126 1089 1130 1004 1081 1105 1105 972 1107 1109 1104 1089 1122 1121 1101 1124 1096 1092 1091 1083 1087 1101 920 1101 823 1090 1070 1016 1086 1016 1099 1104 1083 1101 1082 1086 1077 1134 1085 1065 1103 1090 1060 968 1079 1090 881 1082 1092 1098 1112 1087 1083 1079 1114 1108 1103 992 1097 1129 1096 1082 939 1082 1078 1062 1113 1072 1085 1098 909 1087 1122 1129 1103 1128 1116 1090 1100 1088 1109 1107 1114 1122 994 1089 972 1100 1087 1117 1084 1125 991 1081 1059 1093 1090 996 1080 900 1109 1082 1118 1137 1070 1097 1087 1084 1085 1126 1085 1063 1106 1086 1090 969 1059 1011 1017 1078 1082 1060 1095 1094 1080 974 1083 917 1095 1079 893 1083 1076 1089 1095 1085 1071 1080 1080 1101 1104 1067 1099 1108 1121 1100 1099 1058 1096 1083 1100 1095 1081 975 1055 1104 888 994 1083 1086 892 1088 1103 1086 1112 1078 1122 1098 1013 1086 1123 1095 1113 816 889 1084 798 1103 1107 1078 1070 973 1099 1085 889 1100 1097 1088 1080 989 1084 1075 1097 1069 838 1080 997 1086 1088 1095 1036 1076 1087 1007 887 1090 1121 978 1098 1098 1078 1082 987 920 1002 1083 979 1083 1090 1098 999 990 1079 1115 1007 1106 885 1093 1123 1116 1090 1069 1118 1079 1110 1095 987 1095 1079 1089 1063 973 1100 1072 1061 1068 648 1119 1008 1093 1078 994 1069 1073 1082 1081 1082 1133 887 1083 1087 819 915 929 920 1091 838 1080 1108 1035 1120 915 1082 977 1092 1088 939 969 1060 988 1110 1084 1070 1086 1088 1102 1106 917 1104 1103 991 1095 732 1083 1080 1082 1083 1013 964 975 973 1058 1091 735 1079 1108 1083 1088 1091 1080 1083 1061 993 1081 1063 1091 1106 1077 1062 1081 1079 1070 825 1080 736 1091 1101 1130 1079 821 794 879 623 1092 980 1056 1077 1077 911 1001 907 805 800 1007 1060 997 1090 1107 899 1041 893 988 1067 1066 886 1013 1081 1088 889 1000 1006 810 1095 892 1094 1089 950 884 1066 1101 1005 798 985 891 801 1107 643 1059 906 990 732 1086 978 1100 824 908 885 987 999 1017 1058 630 930 1085 1113 982 1098 1086 1112 886 1091 845 759 828 1118 1001 977 1088 1090 906 975 981 928 1061 747 1117 912 565 970 829 1003 998 713 713 1099 1000 997 888 984 833 794 978 1094 890 997 995 966 998 1086 808 994 886 998 1061 908 905 910 1063 988 1087 931 1065 975 1026 1112 716 916 628 828 627 978 908 1089 1088 819 1086 888 1068 1066 716 1096 834 804 800 880 1005 1090 1086 828 811 644 876 818 713 914 883 1097 1092 1001 731 797 975 1094 884 746 1064 888 715 625 991 1001 733 799 626 887 816 1081 746 555 1080 1067 1084 719 1088 883 671 913 1087 1086 713 711 709 976 642 1000 826 1084 821 632 1009 892 816 907 917 714 624 971 1009 718 888 1086 817 1084 914 882 1002 1088 836 749 908 899 1081 983 739 911 836 928 560 744 909 814 917 762 991 824 537 637 1085 907 735 837 891 656 908 917 882 719 1016 818 915 908 905 912 820 648 814 980 898 804 801 904 1088 733 625 733 811 891 1082 891 709 735 824 896 718 911 971 1081 716 1087 823 711 825 540 991 835 716 972 1084 794 626 622 974 735 1086 714 734 822 911 639 904 970 1079 1077 713 1085 883 921 626 1091 542 658 910 1003 795 717 717 909 1088 997 824 448 717 996 983 719 907 801 719 622 807 1086 750 626 537 812 1059 647 1018 709 737 557 1093 733 912 1009 916 712 1089 998 823 798 621 913 978 815 830 470 1090 730 558 545 829 558 947 804 730 1091 736 899 823 823 621 557 730 802 539 893 534 999 555 449 475 1059 714 730 980 452 538 888 624 734 799 714 924 902 978 820 538 1091 802 1076 734 541 1085 561 583 1007 360 737 738 532 736 737 561 714 974 627 661 1089 887 735 631 730 536 843 712 732 815 709 710 711 562 709 649 819 624 819 627 719 648 909 907 645 748 629 627 553 904 799 627 655 890 716 444 802 911 989 755 795 623 1078 982 824 909 1084 827 918 1004 535 910 808 447 734 733 817 822 561 449 362 911 733 715 989 821 713 619 800 924 654 1083 342 912 449 733 975 535 711 736 631 825 735 1073 1088 793 556 823 647 991 626 913 795 800 735 734 798 1095 717 738 801 706 731 540 628 649 821 537 966 535 710 819 1086 649 732 1114 828 717 831 801 803 648 735 533 717 711 815 718 628 735 1071 645 908 748 804 742 794 991 979 988 975 714 713 719 471 663 731 916 736 1017 717 737 536 556 541 558 994 738 540 750 628 715 708 451 801 1089 1022 661 816 821 713 819 885 802 798 1027 531 624 545 807 712 891 450 741 558 1087 624 731 632 928 914 558 884 888 798 995 737 914 737 622 816 813 537 620 893 817 537 630 988 722 750 445 625 1103 449 995 800 1074 632 718 624 640 721 912 627 801 645 360 558 828 1065 1089 810 889 557 620 563 560 1002 931 650 541 536 713 541 556 716 449 627 710 887 648 1004 560 450 796 711 636 448 719 708 1059 799 921 905 560 798 645 533 798 888 819 739 626 818 712 798 1083 921 727 640 448 627 734 981 713 624 803 626 736 447 540 726 804 800 732 973 816 710 1001 788 802 801 817 1010 472 737 733 731 823 978 539 531 805 741 731 708 798 619 889 879 815 804 799 820 451 646 881 649 996 1003 627 828 884 727 734 448 735 800 619 638 627 916 626 736 627 737 621 622 887 623 623 736 643 451 558 892 923 535 623 560 999 644 997 994 821 996 723 806 651 539 885 616 808 534 734 467 912 632 361 912 737 647 702 620 805 704 626 649 558 989 801 647 628 801 711 716 630 723 473 1085 968 649 708 641 536 716 714 1083 708 714 818 918 629 797 708 635 815 910 620 535 912 643 905 734 916 702 978 731 531 560 449 995 451 563 468 735 638 712 533 889 360 731 647 361 644 628 707 822 1111 557 666 711 1083 727 735 823 624 549 1088 716 363 557 717 443 737 730 830 643 707 891 447 885 467 734 708 470 558 449 447 449 909 807 537 647 805 657 530 473 448 623 982 339 621 731 705 911 640 534 711 361 657 536 794 816 363 713 446 711 649 648 656 468 917 559 714 474 625 820 645 712 797 639 925 708 539 911 645 887 626 728 729 735 534 649 539 835 651 559 447 728 797 619 738 627 827 635 467 557 472 621 708 724 640 448 650 974 818 531 471 622 735 713 794 638 448 893 532 712 887 633 538 713 788 907 622 639 535 621 535 440 706 641 644 730 540 340 915 799 620 532 447 728 451 924 559 629 535 708 338 802 446 336 532 647 796 447 790 1000 650 716 912 555 711 649 712 646 713 454 449 361 543 742 890 973 734 625 706 619 536 807 558 447 551 628 700 338 467 892 551 542 646 540 467 653 797 644 660 912 536 467 337 337 654 928 1016 550 790 630 894 801 538 748 362 822 530 448 554 447 620 814 442 451 359 618 445 808 999 885 526 1095 754 807 891 736 361 449 537 357 358 631 446 802 618 449 808 624 445 361 362 532 450 893 638 652 707 799 629 536 640 358 1000 539 935 626 624 450 359 885 360 710 630 631 643 714 464 805 645 620 618 625 453 626 532 711 825 817 1065 629 714 714 711 529 623 801 531 449 974 623 628 539 702 829 819 465 356 359 729 445 636 468 631 798 533 553 540 561 803 551 361 716 362 643 532 820 527 710 623 439 355 618 360 728 444 360 446 900 555 449 716 739 554 452 622 530 917 988 448 739 472 717 444 979 913 711 626 717 824 814 887 880 629 529 626 649 539 528 981 703 650 614 803 551 847 715 1097 352 651 712 468 439 723 539 844 625 653 458 801 801 883 610 611 721 888 907 529 799 560 792 616 732 713 800 467 650 714 531 791 532 624 823 352 353 830 672 822 907 703 801 789 547 911 651 740 460 640 922 619 467 535 536 539 998 527 884 627 811 710 971 799 541 994 711 701 625 549 441 538 550 533 781 562 797 647 803 1099 632 703 726 527 467 442 530 638 630 450 713 784 716 641 559 355 834 640 806 355 823 572 547 911 627 530 523 441 445 530 440 999 529 800 889 537 536 794 819 703 614 623 462 892 449 537 738 466 438 621 526 547 614 727 463 701 525 530 527 531 624 734 629 444 608 909 648 439 440 634 700 550 630 353 805 828 356 622 542 355 619 732 802 536 553 731 536 741 643 712 438 624 561 735 350 547 532 970 355 817 711 538 355 626 628 1058 528 710 441 548 523 888 822 356 826 612 642 526 648 658 828 615 615 449 783 803 563 529 354 442 351 719 354 540 541 443 438 524 354 528 557 872 560 619 905 749 353 628 708 361 712 732 538 441 352 359 618 912 624 713 540 625 740 527 698 804 637 793 888 621 462 552 554 722 792 786 733 535 732 450 529 822 802 471 720 643 649 610 628 818 643 440 702 613 618 353 452 909 715 705 442 450 700 562 441 354 822 976 704 998 747 444 527 713 354 355 648 527 353 356 540 529 442 625 714 714 441 622 550 557 464 442 530 824 440 888 557 798 535 795 713 711 651 714 439 735 715 442 547 637 449 355 731 807 639 355 354 366 354 541 616 441 523 442 352 907 613 529 445 743 444 804 440 356 467 645 711 442 973 473 476 450 439 353 542 535 445 808 655 557 824 734 550 354 536 703 361 449 355 536 710 789 440 539 352 533 464 635 546 712 625 732 720 354 352 464 635 444 550 355 541 444 543 352 536 354 628 447 811 802 437 702 439 562 444 453 735 626 351 645 356 450 626 730 441 995 803 353 624 532 830 528 353 452 439 442 352 452 538 361 539 354 355 354 442 824 356 471 893 533 877 356 645 737 470 796 618 613 449 451 445 992 441 355 972 533 612 538 439 644 354 629 355 528 536 463 528 440 538 351 624 353 646 643 788 542 438 620 742 729 354 448 471 352 625 611 355 355 632 539 441 444 645 353 717 443 821 714 551 355 451 440 446 352 354 440 539 354 623 630 645 354 629 470 442 554 646 470 453 353 739 617 718 714 800 352 441 648 531 621 452 354 716 444 352 535 618 530 473 352 637 565 999 550 709 354 540 974 646 716 350 546 742 528 531 631 646 615 892 711 353 714 355 473 529 451 360 551 812 351 648 441 533 471 463 540 442 531 671 444 625 629 694 354 439 354 732 352 535 650 554 648 558 740 786 626 731 557 539 625 532 443 626 540 440 628 539 821 821 717 448 354 355 532 711 565 353 540 624 450 628 535 464 529 817 807 355 526 828 556 352 557 626 629 451 538 557 821 630 714 612 627 1016 793 626 619 608 541 537 807 634 626 442 357 439 551 354 625 717 536 1013 353 446 356 627 708 530 441 363 354 718 442 539 563 439 745 538 536 738 835 354 355 895 353 798 355 530 351 649 353 627 443 471 543 445 441 354 355 538 612 638 886 703 560 439 437 653 356 351 352 996 624 439 546 823 738 539 439 348 453 449 354 733 737 349 918 709 450 535 731 441 537 351 362 471 445 363 538 639 631 629 627 804 734 622 820 439 530 351 354 528 548 361 353 722 451 826 443 355 625 441 721 798 557 353 531 441 535 627 537 553 445 623 450 649 362 353 362 525 443 626 451 352 442 449 447 650 713 630 548 742 583 802 716 530 451 641 910 531 708 731 705 633 355 716 626 827 625 530 638 743 361 715 620 717 754 640 617 710 352 537 727 543 540 353 628 618 441 458 612 621 633 637 460 357 720 544 353 448 440 972 443 898 453 439 450 529 719 471 528 464 627 818 353 530 442 737 357 542 453 351 717 613 349 539 441 452 351 446 796 355 351 472 537 715 700 446 355 537 626 646 355 445 354 613 631 438 574 350 616 361 452 798 563 354 911 356 353 711 461 538 630 355 538 736 528 560 356 641 355 541 364 462 621 536 354 356 353 735 453 442 451 541 352 539 823 363 441 626 528 361 628 629 743 530 736 444 623 355 353 435 354 536 551 439 352 444 807 844 541 733 439 353 646 626 544 714 463 707 612 352 907 351 527 535 440 624 541 362 647 629 626 446 451 746 562 442 725 617 634 353 354 808 539 626 553 538 530 541 649 738 716 737 353 560 355 721 633 702 743 821 647 460 539 702 454 626 441 530 439 528 561 527 354 363 543 741 552 353 444 558 352 357 720 571 357 351 440 355 629 351 539 1095 353 537 547 440 450 354 747 803 352 716 447 546 738 703 443 352 740 719 739 524 540 449 627 355 452 646 555 719 539 528 450 889 354 454 542 539 536 551 709 538 474 353 354 647 538 443 355 713 704 352 529 738 363 355 627 449 455 697 440 353 438 712 713 451 438 716 811 453 558 353 717 711 355 537 647 464 438 441 534 460 708 526 825 713 545 436 354 353 351 715 552 538 438 1081 530 363 352 1002 354 538 354 564 627 360 706 441 715 439 364 538 530 535 442 350 649 710 454 356 798 527 797 353 624 627 807 354 716 714 618 649 616 560 542 351 445 894 439 627 544 354 530 541 530 359 442 541 353 446 351 643 539 361 636 454 627 351 451 354 536 541 548 627 543 474 353 355 804 446 801 619 831 539 351 451 454 638 532 438 440 445 539 445 800 829 533 353 718 527 796 353 560 475 356 351 526 353 541 439 646 645 356 539 449 450 472 627 630 629 536 355 363 451 355 795 717 795 461 450 351 533 471 646 827 356 440 362 538 911 712 534 536 718 352 818 356 736 614 471 356 889 548 354 442 652 615 362 539 522 644 351 538 542 540 360 356 526 355 355 477 538 624 714 840 473 713 528 355 442 457 536 355 349 452 545 442 445 542 562 356 819 528 561 472 666 627 634 645 534 639 733 352 450 556 360 473 718 622 721 620 615 719 356 624 821 454 443 649 717 536 618 351 625 717 356 353 553 540 350 822 353 535 558 559 612 475 541 352 552 661 352 625 468 356 542 653 617 470 632 358 462 527 469 473 353 543 532 354 359 564 531 718 740 737 630 618 813 456 624 725 648 624 712 541 615 354 438 471 451 645 529 717 629 471 352 797 562 646 613 471 650 652 472 561 352 353 651 354 472 357 442 824 624 444 707 647 532 647 444 443 446 722 626 541 351 625 652 544 354 634 534 459 532 641 354 809 362 353 730 442 452 354 352 454 713 632 355 1090 455 530 623 1100 449 454 540 630 541 530 362 803 527 740 355 544 364 354 542 744 461 357 811 446 614 823 362 550 548 353 651 660 912 353 528 535 650 355 651 441 716 627 354 723 354 632 353 472 627 356 350 539 365 631 354 443 353 719 625 708 352 656 544 629 542 357 635 354 442 441 630 544 351 541 444 354 540 709 650 739 354 716 442 809 473 528 540 451 353 355 353 617 627 536 539 353 460 651 630 540 556 360 453 353 627 448 564 527 537 532 352 357 363 529 543 363 357 538 526 436 454 355 714 354 454 832 537 350 442 450 632 451 352 365 647 455 802 439 352 528 354 806 354 451 364 627 650 355 356 627 542 452 444 354 352 539 463 547 627 451 824 531 631 536 363 562 552 466 798 443 531 364 354 545 351 534 715 437 453 714 355 446 444 451 453 455 440 626 531 539 753 628 543 352 354 637 565 559 455 531 629 443 544 362 353 543 362 355 357 562 625 643 449 361 531 354 444 361 557 713 529 808 749 355 526 633 797 535 467 533 626 540 450 464 815 468 749 789 719 451 355 443 448 722 654 444 457 647 361 531 441 626 632 625 718 799 754 556 757 839 527 732 713 991 706 715 831 643 712 530 352 444 645 608 738 799 728 785 815 621 617 900 957 699 627 717 696 903 740 626 559 624 827 627 983 797 716 542 531 616 449 700 615 562 725 440 526 353 823 539 528 353 531 627 626 561 558 452 629 649 787 745 537 1009 717 561 713 542 628 532 364 618 632 362 806 564 548 475 534 637 628 538 717 561 451 646 539 630 528 708 781 713 465 716 537 704 714 353 441 536 629 442 731 653 622 624 448 713 720 446 895 441 465 740 539 526 549 445 438 539 622 560 438 616 886 616 735 639 712 356 363 645 840 538 722 699 442 441 353 532 626 440 640 643 363 539 699 644 534 355 629 530 449 354 539 553 632 352 552 454 542 734 527 540 445 727 627 901 438 533 561 439 353 350 354 363 355 472 364 621 725 536 442 543 539 542 559 360 538 450 450 441 717 540 531 623 443 736 607 354 717 535 539 442 886 353 827 364 353 355 352 637 460 630 444 355 360 542 355 664 354 470 362 351 452 538 449 737 643 442 713 354 356 358 472 448 540 450 549 527 441 453 449 713 357 639 624 648 475 452 527 704 713 548 719 651 735 650 525 449 715 531 351 559 531 458 645 636 452 444 356 549 351 443 353 354 559 548 645 441 832 445 542 618 445 902 353 553 354 362 617 355 354 714 740 355 449 529 438 362 738 354 611 802 355 366 539 364 442 353 357 799 361 711 362 794 449 718 451 359 534 444 353 450 960 354 536 730 530 439 354 528 362 354 353 527 452 545 650 541 527 363 742 363 451 463 358 529 445 713 442 531 525 450 459 542 540 447 629 361 719 524 356 354 738 540 539 825 734 352 551 751 538 450 361 361 616 539 350 610 455 355 532 535 628 441 355 444 445 353 450 354 536 532 352 352 442 444 612 540 356 537 634 355 716 357 355 354 453 444 361 354 353 455 528 444 365 446 539 451 448 363 531 351 440 362 355 536 648 637 538 531 716 715 361 667 619 738 443 701 535 722 452 540 744 613 353 542 625 648 530 631 354 448 556 453 362 540 354 445 536 537 730 440 785 529 539 524 354 570 627 448 718 536 714 738 635 719 473 440 701 639 352 540 644 1091 352 526 476 564 721 629 468 626 803 616 362 630 699 362 356 365 442 620 442 362 548 354 714 360 611 540 539 354 698 355 442 361 355 357 364 355 441 362 364 738 627 451 437 444 527 352 361 446 541 447 448 800 363 737 448 352 354 807 448 443 720 362 639 445 541 363 439 621 528 352 835 636 356 439 457 364 541 452 441 361 524 351 351 453 462 628 362 355 544 463 353 364 472 354 355 452 449 525 357 632 441 351 538 454 354 356 361 471 353 362 465 631 539 354 352 724 363 540 449 443 614 455 531 532 363 454 354 524 621 545 448 355 437 352 454 542 363 639 451 441 445 526 350 355 354 463 468 472 453 647 639 471 469 539 564 352 448 552 627 355 441 446 352 354 542 452 524 355 362 354 451 533 533 543 353 362 537 358 450 566 625 701 363 710 538 444 354 354 352 353 545 354 361 650 358 366 366 359 458 449 355 631 449 440 536 543 713 802 443 650 453 356 438 439 540 471 544 353 451 838 540 540 451 523 527 440 524 810 626 352 355 625 525 445 527 608 626 348 362 456 364 536 356 363 353 448 440 353 355 353 364 353 357 449 355 362 540 438 456 354 363 441 731 535 363 437 448 363 352 451 361 363 353 363 630 442 458 633 562 531 358 358 649 361 363 531 560 452 354 360 630 533 529 452 708 443 439 362 361 354 447 615 452 352 560 624 363 551 356 450 351 351 536 352 355 447 629 556 901 352 733 355 539 436 361 436 526 445 625 362 442 457 351 362 624 541 355 362 736 716 608 442 362 362 354 610 809 460 363 360 530 450 538 352 529 354 360 539 454 457 543 440 353 363 442 353 562 363 353 362 527 439 354 700 362 540 442 625 448 354 354 354 531 450 449 355 361 355 527 455 451 362 362 455 442 451 362 460 448 456 541 354 363 354 353 361 355 353 444 355 353 363 361 361 362 353 357 353 438 359 443 355 362 462 362 626 445 354 361 453 360 354 452 539 362 650 353 362 540 530 440 453 357 536 354 354 619 352 360 354 354 549 440 539 543 436 354 445 356 530 643 541 362 450 360 542 470 353 355 541 557 357 355 529 354 451 454 350 353 442 359 441 355 450 454 354 576 362 365 537 714 362 350 453 361 361 449 628 363 446 363 364 449 365 354 363 351 444 364 446 437 453 351 364 535 363 361 363 359 539 363 536 364 451 352 440 453 356 453 461 543 450 361 703 722 355 627 354 638 361 537 352 440 361 454 353 363 449 363 450 360 364 353 363 363 353 640 364 353 361 453 352 352 361 354 449 360 362 443 366 365 461 440 450 365 362 360 451 357 352 440 442 797 439 451 360 363 361 354 365 364 353 361 361 437 361 354 361 361 354 441 351 439 362 610 452 448 365 362 458 361 451 362 365 364 440 355 440 443 446 352 361 358 366 352 361 354 605 352 440 444 357 353 352 353 366 452 346 356 354 434 357 455 365 446 352 359 352 639 364 360 352 354 362 352 531 352 439 362 356 354 553 451 360 351 454 362 360 354 352 649 363 354 356 354 357 363 453 364 360 560 365 441 450 548 356 353 366 622 362 351 353 358 361 353 365 354 353 351 365 352 448 359 354 362 353 351 360 450 355 351 365 353 439 352 613 352 356 351 356 362 360 361 628 362 450 361 361 352 360 354 350 361 362 361 354 361 361 351 364 362 446 354 439 442 365 356 450 442 354 528 360 361 362 449 364 362 356 362 353 360 360 437 353 361 527 360 350 352 359 352 351 439 360 441 353 448 352 353 448 353 361 352 353 365 362 362 362 361 365 354 354 356 363 360 356 351 362 361 364 452 350 351 361 359 629 362 365 350 362 353 365 353 351 439 361 362 441 356 353 362 364 356 360 362 352 352 365 362 364 365 353 359 361 365 352 354 362 360 365 353 365 361 363 352 359 451 353 362 352 359 439 360 365 365 361 364 353 362 351 352 365 362 365 355 361 360 365 357 355 351 365 355 351 364 365 365 356 364 361 365 439 358 364 356 351 351 351 365 355 450 356 354 351 356 361 450 362 524 352 356 441 361 362 361 353 351 360 362 362 351 361 353 353 352 439 362 362 353 351 362 361 362 357 356 362 362 350 365 361 363 362 364 364 365 362 362 362 361 361 353 361 351 352 353 365 356 362 353 353 362 453 362 351 361 353 438 353 353 362 462 363 365 353 361 539 360 441 366 365 361 352 356 355 351 363 351 360 356 451 533 351 366 362 360 356 361 451 353 355 361 363 362 355 352 351 358 354 358 353 353 361 355 352 362 440 361 353 362 353 354 365

Tree=0
num_leaves=10
num_cat=0
split_feature=235 252 377 275 316 414 385 628 238
split_gain=387.33 58.9603 34.2169 23.0024 21.5858 22.1476 11.518 17.315 9.29796
threshold=0.4151322096586228 0.029641658067703251 0.015663835685700182 3.8776223776223779 0.54112252066500754 0.009786283131688835 0.0058947633951902398 0.97370174527168285 0.86800056695938121
decision_type=10 10 8 2 10 2 2 2 10
left_child=2 6 -1 -3 5 -4 7 -2 -5
right_child=1 3 4 8 -6 -7 -8 -9 -10
leaf_value=0 0 0.00071543935426831673 0.001422521269443127 0 0 0 -0.0011934754546898102 -0.000806168520047414 -0.00066033774912091026
leaf_weight=9.5931354165077192 19.995099544525146 17.421568810939789 91.210783958435059 8.171568691730501 9.3823534250259382 4.9215685725212088 79.308823585510254 38.90686297416687 19.088235259056091
leaf_count=23 55 62 361 25 26 12 127 73 36
internal_value=0 -0.000698131 0.00110127 0 0.00122938 0.00133686 -0.00094575 -0.000517226 -0.000355459
internal_weight=0 182.892 115.108 44.6814 105.515 96.1324 138.211 58.902 27.2598
internal_count=800 378 422 123 399 373 255 128 61
is_linear=0
shrinkage=-0.000774953


Tree=1
num_leaves=10
num_cat=0
split_feature=235 39 39 106 235 235 353 199 292
split_gain=372.181 60.8734 35.1977 18.9716 19.233 15.799 7.0222 6.96649 6.33989
threshold=0.4151322096586228 0.056551441550254829 0.030621103011071685 0.0017128327050927028 0.82848969101905834 0.77709653973579418 8.5000000000000018 0.10044751316308977 0.0040533123537898072
decision_type=10 2 2 10 10 10 2 8 2
left_child=2 5 8 4 -3 6 7 -2 -1
right_child=1 3 -4 -5 -6 -7 -8 -9 -10
leaf_value=0.0016200111373576341 0 5.2405615301911721e-05 0 -0.0014184649800588838 -0.0010034427704860313 -0.00047554125742867566 0 0.0010957939002415543 0
leaf_weight=90.124433621764183 5.4208371490240106 20.512859731912613 21.492403671145439 93.960279643535614 23.217049494385719 19.624592468142509 4.1711517125368109 15.959496974945072 3.4602791666984549
leaf_count=351 14 59 61 153 41 42 9 60 10
internal_value=0 -0.000838407 0.00132197 -0.00114952 -0.000427507 2.0041e-05 0.000578002 0.000812627 0.00157167
internal_weight=0 182.866 115.077 137.69 43.7299 45.1761 25.5515 21.3803 93.5847
internal_count=800 378 422 253 100 125 83 74 361
is_linear=0
shrinkage=-0.000949058


Tree=2
num_leaves=10
num_cat=0
split_feature=2 144 87 13 239 63 239 63 69
split_gain=555.768 46.9763 13.384 12.9405 5.29719 8.0661 3.80078 3.11427 1.13761
threshold=0.52298325300216686 0.19156934320926669 0.60544544458389293 0.021042919717729095 0.5748991370201112 0.22870609164237979 0.18380071222782138 0.013721222523599865 0.0030875768279656772
decision_type=10 2 10 2 10 2 10 2 2
left_child=1 3 -2 -1 5 7 -3 -5 -9
right_child=2 6 -4 4 -6 -7 -8 8 -10
leaf_value=0 0.0013934127334123058 0.00068751796030531911 0 0 -0.0011939337324982163 0 0 0 -0.00077161770325345422
leaf_weight=2.9798588603734961 115.758704200387 6.2432359755039197 6.4200338721275321 0.74985896050930634 132.01543714106083 6.4404157847166053 6.6497134417295456 0.25000000000000255 20.293062850832939
leaf_count=10 450 25 18 3 219 20 17 1 37
internal_value=0 -0.000930775 0.00133004 -0.00105682 -0.00109142 -0.000413937 0.000311009 -0.000669809 -0.000745183
internal_weight=0 175.622 122.179 162.729 159.749 27.7333 12.8929 21.2929 20.5431
internal_count=800 332 468 290 280 61 42 41 38
is_linear=0
shrinkage=-0.000820641


Tree=3
num_leaves=10
num_cat=0
split_feature=724 252 252 805 851 141 420 446 150
split_gain=306.457 73.1784 24.4636 21.7227 16.5468 12.9367 12.7777 9.76519 7.06241
threshold=0.17903155833482745 0.027143026702106002 0.041043601930141456 0.59339386224746715 0.56602523270742766 0.0032916280844576475 1.0000000180025095e-35 0.24118105857892772 0.0055809456389397391
decision_type=2 8 10 10 8 8 2 8 2
left_child=1 6 5 4 7 -2 -1 -3 -7
right_child=2 3 -4 -5 -6 8 -8 -9 -10
leaf_value=-0.00022414115200941744 0 -0.0013980718561989785 0 0 0 0 0.00063629722519648632 0 0.0011539945385317936
leaf_weight=25.218908786773682 5.1870460212230673 96.171741962432861 19.957761526107788 7.8771537393331519 5.1692526042461386 6.3960523307323447 17.355289608240128 4.9343020915985099 109.27774699032307
leaf_count=76 15 374 53 20 13 16 33 14 186
internal_value=0 -0.000812465 0.000902051 -0.00116391 -0.00126395 0.0010436 4.68807e-05 -0.00133906 0.00110283
internal_weight=0 156.727 140.819 114.152 106.275 120.861 42.5742 101.106 115.674
internal_count=800 530 270 421 401 217 109 388 202
is_linear=0
shrinkage=0.000849957


Tree=4
num_leaves=10
num_cat=0
split_feature=238 43 17 51 104 108 193 282 84
split_gain=358.056 59.4068 59.294 17.5679 17.1562 10.2513 17.4498 9.85753 7.59467
threshold=0.63911494612693798 0.044735144823789603 0.075770750641822829 0.54112252066500754 0.15378706157207492 1.0068262219429018 0.63699072599411022 4.5000000000000009 0.26522192358970648
decision_type=10 10 2 8 2 10 10 2 2
left_child=1 7 4 8 -2 6 -6 -1 -4
right_child=2 -3 3 -5 5 -7 -8 -9 -10
leaf_value=0.0016238574264667886 0 -0.00024259481861178188 0 -0.00048363077922022608 0.00035044796414803174 -0.0014081859787908571 -0.00086078702046876471 0 0.00089104568916168532
leaf_weight=92.855151951313019 16.007729709148407 13.012215882539747 7.8789930939674404 19.368039771914482 7.2082113176584235 88.51658034324646 29.107521519064903 5.1885668039321891 18.660267218947411
leaf_count=366 41 29 20 41 25 141 55 15 67
internal_value=0 0.00130256 -0.000780409 4.12372e-05 -0.00107681 -0.00119224 -0.000494506 0.0015544 0.000592103
internal_weight=0 111.056 186.747 45.9073 140.84 124.832 36.3157 98.0437 26.5393
internal_count=800 410 390 128 262 221 80 381 87
is_linear=0
shrinkage=-0.000926578


Tree=5
num_leaves=10
num_cat=0
split_feature=54 146 128 15 300 128 15 723 146
split_gain=359.481 54.0584 33.9802 27.1401 23.635 16.7048 8.30763 6.34126 3.57693
threshold=1.0000000180025095e-35 0.020592105229700095 4.5000000000000009 0.56253015995025646 0.036459241993725307 2.5000000000000004 0.33589781820774084 0.26314529776573187 0.049156051686275369
decision_type=2 10 2 2 2 2 2 2 10
left_child=1 2 4 -2 6 -5 -1 -7 -3
right_child=3 8 -4 5 -6 7 -8 -9 -10
leaf_value=-0.00025265792995168894 0.001331902430184075 0 0 -0.00069378764308965365 0 0 -0.0018174294450904501 0.001096941911324003 0.00091908566003014549
leaf_weight=13.118862390518187 122.46647846698761 4.9337496012449247 13.53898826241493 11.427978217601774 3.4192224740982047 7.643770411610606 99.635819628834724 13.648881882429121 7.5406026393175125
leaf_count=41 216 14 35 40 6 21 394 22 11
internal_value=0 -0.00120136 -0.00141507 0.00110205 -0.00159697 6.12654e-05 -0.00168955 0.000716832 0.00054085
internal_weight=0 142.187 129.713 155.187 116.174 32.7206 112.755 21.2927 12.4744
internal_count=800 501 476 299 441 83 435 43 25
is_linear=0
shrinkage=0.00105451


Tree=6
num_leaves=10
num_cat=0
split_feature=194 21 909 21 726 180 84 291 811
split_gain=331.167 105.525 41.033 15.3 11.44 11.0902 10.1461 17.747 8.02396
threshold=0.49420127272605902 0.18796528865217971 7.5000000000000009 0.0032482482735745619 0.43103744590105736 0.021822731010615829 0.43062339723110205 0.0031321618605714193 0.045414516042776736
decision_type=8 8 2 8 10 2 2 10 10
left_child=1 2 -1 -2 8 -3 -5 -8 -4
right_child=3 5 4 6 -6 -7 7 -9 -10
leaf_value=3.9567768102610327e-05 0 0.00093154363742959203 -0.0015226324954614118 0.0014798437644512575 0 0 -0.00034964705384054061 0.0010382731606840845 0
leaf_weight=13.255536049604414 17.43724799156189 23.678043887019161 118.03173269331455 87.522891134023666 3.9346652328968039 6.6802810728549948 8.6785396486520785 15.077283546328543 2.707847371697425
leaf_count=32 43 43 455 136 10 21 29 24 7
internal_value=0 -0.000889832 -0.00125862 0.00115952 -0.00143284 0.000608958 0.0012952 0.000359855 -0.00148529
internal_weight=0 168.288 137.93 128.716 124.674 30.3583 111.279 23.7558 120.74
internal_count=800 568 504 232 472 64 189 53 462
is_linear=0
shrinkage=0.000969335


Tree=7
num_leaves=10
num_cat=0
split_feature=284 27 290 346 59 126 290 399 290
split_gain=249.192 80.2662 29.3706 28.2085 29.2494 22.2147 15.0084 14.3465 13.882
threshold=1.5000000000000002 0.161997064948082 0.0080081573687493818 0.0018039899890127489 30.500000000000004 1.1237492504669133 0.24094060808420184 1.0000000180025095e-35 0.0055478154681622991
decision_type=2 10 2 10 2 8 2 2 2
left_child=1 6 3 4 -2 8 7 -1 -3
right_child=2 5 -4 -5 -6 -7 -8 -9 -10
leaf_value=0.0013922014200599311 0.00054826428052568246 0.00085752310682907218 -0.0014026255515440995 -0.0010010835991001402 -0.00063253305424181222 -0.00077870863255677543 0 0 -0.00015815739217145842
leaf_weight=91.983523219823837 29.690026178956032 17.100625723600391 48.46850574016571 39.923457384109497 30.767978399991989 20.499372288584709 2.6846007108688346 5.9031817167997351 9.535391762852667
leaf_count=359 96 63 70 70 62 38 5 16 21
internal_value=0 0.00080551 -0.000801907 -0.000444398 0 -6.04624e-05 0.00124644 0.00130851 0.000358164
internal_weight=0 147.707 148.85 100.381 60.458 47.1354 100.571 97.8867 26.636
internal_count=800 502 298 228 158 122 380 375 84
is_linear=0
shrinkage=-0.000883468


Tree=8
num_leaves=10
num_cat=0
split_feature=194 41 688 299 485 540 45 155 397
split_gain=318.805 88.4903 26.288 20.5668 15.4343 14.3368 12.3312 11.3127 8.54771
threshold=0.49420127272605902 0.001326060833262899 0.030347841791808609 559.00000000000011 0.16025641025641027 0.1153846153846154 0.037240257486701019 0.0084729874506592768 1.0000000180025095e-35
decision_type=8 10 10 2 2 2 8 2 2
left_child=1 2 -1 6 -3 8 -2 -8 -4
right_child=3 4 5 -5 -6 -7 7 -9 -10
leaf_value=0 0 -2.0736722481522375e-05 -0.0011765265384933983 0 0.0007791527162337189 0 0 0.0010493011197201716 0
leaf_weight=12.800701305270193 8.1048468649387342 23.406103760004044 105.88792289793491 6.4248559474945059 15.339973121881483 5.4122575670480719 3.7023431658744803 110.29974983632565 5.1779086589813224
leaf_count=34 21 67 413 20 25 14 11 180 15
internal_value=0 -0.000668347 -0.000965477 0.00087255 0.000231639 -0.00107452 0.00094434 0.00100617 -0.00113112
internal_weight=0 168.025 129.279 128.532 38.7461 116.478 122.107 114.002 111.066
internal_count=800 568 476 232 92 442 212 191 428
is_linear=0
shrinkage=0.000742292


Tree=9
num_leaves=10
num_cat=0
split_feature=53 889 237 624 80 64 425 760 389
split_gain=307.405 78.2 35.9201 27.6902 14.425 11.1907 7.07331 6.92563 6.50423
threshold=1.5000000000000002 3.5000000000000004 0.81557410955429088 0.14073050022125247 0.55597802996635448 0.13746789097785952 0.34848484848484856 -0.63333333333333319 0.039175001904368408
decision_type=2 2 10 2 2 2 2 2 2
left_child=1 2 3 6 -2 -3 7 -1 -9
right_child=4 5 -4 -5 -6 -7 -8 8 -10
leaf_value=0 0.0013032876584464282 0.00088170165770181958 0.00042128715765025332 8.0943719242685552e-05 0 -0.00026444204622414088 0 -0.0016998278738946067 0
leaf_weight=5.4316851198673239 119.53366687893867 22.677052289247516 7.0706203132867804 5.8535620123147956 13.256101608276365 4.9640467017889014 2.9517865478992453 111.12472823262215 3.2005398422479621
leaf_count=16 210 43 13 12 34 18 8 437 9
internal_value=0 -0.00096593 -0.00130518 -0.00144608 0.00118825 0.000495304 -0.00156122 -0.00160046 -0.00165755
internal_weight=0 163.274 135.633 128.562 132.79 27.6411 122.709 119.757 114.325
internal_count=800 556 495 482 244 61 470 462 446
is_linear=0
shrinkage=0.00105964


Tree=10
num_leaves=10
num_cat=0
split_feature=560 63 49 31 63 35 654 28 35
split_gain=234.707 52.7451 52.1902 29.6763 24.0683 11.2001 10.6471 6.8697 5.55148
threshold=0.70329670329670335 0.25790096819400793 0.17821271717548373 0.10087691140510063 0.020816205069422725 0.046589195728302009 0.97832787036895763 0.39668227732181555 0.23889605700969699
decision_type=2 2 10 10 2 2 10 8 2
left_child=1 5 4 7 -2 -1 -7 -3 -5
right_child=2 3 -4 8 -6 6 -8 -9 -10
leaf_value=-2.6992674314909451e-05 0 0.001232247455238312 -0.00015703577813774844 0 0.0017115135198635619 -0.0014186352945984048 0 0 -0.0010625937929625295
leaf_weight=18.616243079304695 9.5847940891981107 19.339864134788513 21.021661400794983 7.6121549010276821 87.783530503511429 100.79431830346584 9.0565528273582441 7.1228580921888378 14.548257201910017
leaf_count=46 25 72 52 21 346 172 23 19 24
internal_value=0 -0.000805516 0.00119046 7.30695e-05 0.00153354 -0.00117561 -0.0013167 0.000921627 -0.000706544
internal_weight=0 177.09 118.39 48.6231 97.3683 128.467 109.851 26.4627 22.1604
internal_count=800 377 423 136 371 241 195 91 45
is_linear=0
shrinkage=-0.00110656


Tree=11
num_leaves=10
num_cat=0
split_feature=36 370 379 126 62 630 354 40 40
split_gain=257.548 57.7665 53.4456 25.9571 23.344 11.1199 9.89097 7.44764 7.337
threshold=0.017700448129232722 0.010296419262886049 0.20381948351860049 1.3204505835470499 0.23583767563104632 0.91670849919319164 1.0000000180025095e-35 0.017793423496186737 0.1941422373056412
decision_type=8 2 10 10 2 2 2 10 10
left_child=1 3 4 8 6 -6 -2 -4 -1
right_child=2 -3 7 -5 5 -7 -8 -9 -10
leaf_value=-0.001128254019903795 0 0.00051762769438922038 -0.00079251950840180784 0 0.0005364210147944553 -0.00020565135218404099 0.00093628089562036883 0 0
leaf_weight=97.403074204921722 10.543014794588087 11.167157575488089 12.624568969011305 11.279746651649473 16.04878893494606 18.235411465167999 112.24640983343124 2.6680101901292792 2.6994632482528678
leaf_count=384 27 20 49 30 30 56 192 5 7
internal_value=0 -0.000805825 0.000580036 -0.000978453 0.000719337 5.32895e-05 0.000871659 -0.000550069 -0.00109567
internal_weight=0 122.549 172.366 111.382 157.074 34.2842 122.789 15.2926 100.103
internal_count=800 441 359 421 305 86 219 54 391
is_linear=0
shrinkage=0.000736791


Tree=12
num_leaves=10
num_cat=0
split_feature=39 51 51 160 39 315 410 811 245
split_gain=270.006 57.9144 22.0261 14.6902 15.8938 11.8577 6.921 6.78848 5.92381
threshold=0.030621103011071685 0.58824747935245214 0.55121137686519772 0.09401709401709403 0.26636436581611639 1.3205128205128207 0.0058003109879791745 0.028674140701873841 9.5000000000000018
decision_type=2 8 10 2 2 2 2 8 2
left_child=1 5 3 4 6 7 -2 -1 -4
right_child=2 -3 8 -5 -6 -7 -8 -9 -10
leaf_value=0 0.0008539448404052129 -0.00019826138831383335 0 -0.00075283878925971502 -0.00042060128691614497 0 0 0.0012632660791507494 -0.0011110937539534687
leaf_weight=2.9337887167930603 13.882694065570833 21.785634994506836 2.9365418553352347 31.297988221049309 27.481814339756966 3.4161102175712577 6.3710068613290778 102.63343085348606 81.503351703286171
leaf_count=8 52 51 8 59 59 8 16 403 136
internal_value=0 0.00091405 -0.00073931 -0.000314686 0 0.00117454 0.000541729 0.00122694 -0.00106849
internal_weight=0 130.769 163.473 79.0335 47.7355 108.983 20.2537 105.567 84.4399
internal_count=800 470 330 186 127 419 68 411 144
is_linear=0
shrinkage=-0.000864417


Tree=13
num_leaves=10
num_cat=0
split_feature=89 29 39 480 149 138 77 114 141
split_gain=328.019 41.8965 22.3228 13.2298 11.6806 11.383 7.58386 7.1315 6.07392
threshold=0.49928528070449835 0.21700976788997653 0.056551441550254829 0.32051282051282054 0.00086524340440519165 1.1721565723419192 0.4966587126255036 0.10541678220033647 0.0027825568803360131
decision_type=10 10 2 2 10 10 10 10 10
left_child=1 3 4 5 -2 6 -1 8 -4
right_child=2 -3 7 -5 -6 -7 -8 -9 -10
leaf_value=0.0016833879556795177 0.00041028915787093588 0 0 0 -0.00086521979294652113 0 0 0 -0.0014575406438838792
leaf_weight=99.270649686455727 14.779744267463686 34.942888736724854 3.909991353750228 2.9210645705461493 12.60388523340225 3.9172838777303687 2.6857170313596717 9.2362435162067396 109.2471372038126
leaf_count=396 48 99 10 6 22 10 7 22 180
internal_value=0 0.00116723 -0.00113052 0.00149775 -1.45822e-05 0.00156541 0.0016351 -0.0013317 -0.00141045
internal_weight=0 143.738 149.777 108.795 27.3836 105.874 101.956 122.393 113.157
internal_count=800 518 282 419 70 413 403 212 190
is_linear=0
shrinkage=-0.00109495


Tree=14
num_leaves=10
num_cat=0
split_feature=159 620 63 684 202 831 293 617 410
split_gain=239.389 52.5107 44.5265 31.2877 18.0335 17.2068 14.2634 7.79881 7.06593
threshold=0.03017708566039801 0.13814727962017062 0.30008007586002355 -1.0000000180025095e-35 0.030204099602997306 1.0000000180025095e-35 0.026835603639483455 0.96199733018875133 0.0062371636740863332
decision_type=2 2 2 2 8 8 2 2 2
left_child=3 2 4 5 -2 6 7 -1 -4
right_child=1 -3 8 -5 -6 -7 -8 -9 -10
leaf_value=-0.0011348248593868692 0.00065131359972278027 0.0010187440290712411 -0.00090119600089675288 0.00010186386530670548 -9.2635268637271523e-05 0 0 0 0
leaf_weight=93.923879608511925 57.656134456396103 80.840063408017159 18.28354619443417 11.202855408191679 15.222197428345678 5.8653659075498572 4.87519846856594 2.663510099053382 3.6687146276235572
leaf_count=369 114 133 70 26 46 14 12 7 9
internal_value=0 0.000566669 0.000127299 -0.000827818 0.000447245 -0.00095964 -0.00103437 -0.00109865 -0.000720212
internal_weight=0 175.671 94.8306 118.531 72.8783 107.328 101.463 96.5874 21.9523
internal_count=800 372 239 428 160 402 388 376 79
is_linear=0
shrinkage=0.00076454


Tree=15
num_leaves=10
num_cat=0
split_feature=100 133 133 291 420 47 47 45 291
split_gain=243.611 63.809 42.631 25.8265 23.3868 15.4213 15.2528 13.8409 8.03907
threshold=0.11167350411415101 0.16821312904357913 0.079087529331445708 0.0034618209784580546 1.0000000180025095e-35 0.041106315329670913 0.28541789948940283 0.35819557309150701 0.002313840920311977
decision_type=2 10 8 10 2 10 10 10 10
left_child=2 4 -1 7 5 -2 -4 -3 -6
right_child=1 3 6 -5 8 -7 -8 -9 -10
leaf_value=0 -4.2379046470209308e-05 -0.0011255791116366771 -0.0014315485540466306 0.0007149864895989441 0 0.00081144054963093297 0 0 0.0014389589718807392
leaf_weight=21.796688467264175 22.847229018807411 24.282634109258655 91.814819619059563 10.921550035476683 1.9671257287263859 34.007001176476479 2.6829195618629447 4.8771060556173316 79.538623496890068
leaf_count=57 65 90 360 19 6 66 5 10 122
internal_value=0 0.000712786 -0.00107951 -0.000263675 0.0010297 0.000398202 -0.00135783 -0.000809131 0.00138975
internal_weight=0 178.441 116.294 40.0813 138.36 56.8542 94.4977 29.1597 81.5057
internal_count=800 378 422 119 259 131 365 100 128
is_linear=0
shrinkage=0.000971644


Tree=16
num_leaves=10
num_cat=0
split_feature=120 337 43 69 782 401 258 456 385
split_gain=258.312 55.0746 37.0563 36.9074 18.2734 7.77043 5.01732 3.35128 7.16312
threshold=0.20619914680719378 0.053780876100063331 0.044735144823789603 0.04142745956778527 0.99905279278755199 1.0000000180025095e-35 41.500000000000007 0.0099167782649365148 0.0060782609507441529
decision_type=2 2 10 2 8 8 2 10 2
left_child=1 2 6 7 -3 -6 -1 8 -2
right_child=3 4 -4 -5 5 -7 -8 -9 -10
leaf_value=-0.0012391522096600156 0 0.00059165734204634122 0.0001278246375502205 -8.7323502774426561e-05 -0.00079330763661103042 0 0 0.0010342134939717769 0.00070986019429806102
leaf_weight=96.976258531212807 9.0966967791318911 20.439696416258812 9.7945880591869336 19.5918929874897 13.366266667842867 5.3631646931171408 3.4103256911039344 106.89273631572723 9.1587738394737226
leaf_count=384 27 40 22 58 50 12 10 183 14
internal_value=0 -0.000754063 -0.00104943 0.000783684 0 -0.000464627 -0.00120461 0.000951418 0.000205536
internal_weight=0 149.35 110.181 144.74 39.1691 18.7294 100.387 125.148 18.2555
internal_count=800 518 416 282 102 62 394 224 41
is_linear=0
shrinkage=0.000826627


Tree=17
num_leaves=10
num_cat=0
split_feature=54 25 17 480 721 45 410 82 177
split_gain=302.008 53.1215 27.1063 21.5004 11.6027 6.61236 7.91965 6.69137 6.33741
threshold=1.0000000180025095e-35 0.20426243543624881 0.22868956625461581 0.22649572649572652 0.025720365325189405 0.076573625206947341 0.0069378165062516936 0.43679389357566839 0.14369905740022662
decision_type=2 10 2 2 10 10 2 2 10
left_child=1 3 4 -1 -2 6 -3 -7 -4
right_child=2 5 8 -5 -6 7 -8 -9 -10
leaf_value=-0.0013465789226684863 0 -0.00079237014139258745 -0.00055273987614180473 0 0.0010745216743942964 0.00055878273422379956 0 -0.00015984634426925454 0.00033131668364842374
leaf_weight=97.066630646586418 12.738760605454443 13.559348180890085 9.6521063297987002 3.1493627876043311 122.13896599411964 18.280915960669521 3.6560956239700309 4.932236745953559 9.5317882895469648
leaf_count=383 32 51 35 5 213 37 7 18 19
internal_value=0 -0.000923775 0.00085195 -0.00126255 0.000990661 0 -0.000439696 0.000233225 0
internal_weight=0 140.645 154.062 100.216 134.878 40.4286 17.2154 23.2132 19.1839
internal_count=800 501 299 388 245 113 58 55 54
is_linear=0
shrinkage=0.000882931


Tree=18
num_leaves=10
num_cat=0
split_feature=239 44 55 114 726 721 239 190 239
split_gain=281.221 53.8393 36.4588 23.3743 11.7556 7.97241 4.04723 3.62309 3.59805
threshold=0.60681968927383434 0.037459541112184531 10.240384615384617 0.10240882262587549 0.0020530064634230777 0.08991136766960918 0.82581374049186718 0.39391317963600164 0.24506840109825137
decision_type=10 10 2 10 10 10 10 8 8
left_child=1 2 -1 4 -2 8 -5 -7 -4
right_child=3 -3 5 6 -6 7 -8 -9 -10
leaf_value=-0.0015563060461748855 0 0.00029138240440515056 0 -0.0007118886874405326 0.0011574756448316714 0.00069377697874441332 9.6090198217107817e-05 0 -0.00090031500875751723
leaf_weight=93.747228562831879 14.150654211640356 20.044625595211983 3.9125150889158267 5.4541704654693595 124.46961805224419 8.2542129456996882 9.2328688204288465 4.1677094846963891 10.126642927527426
leaf_count=378 36 46 10 22 222 14 20 13 39
internal_value=0 -0.00100763 -0.00126611 0.000931094 0.00105936 -2.3624e-05 0 0.000315857 -0.000630023
internal_weight=0 140.253 120.208 153.307 138.62 26.4611 14.687 12.4219 14.0392
internal_count=800 500 454 300 258 76 42 27 49
is_linear=0
shrinkage=0.000997102


Tree=19
num_leaves=10
num_cat=0
split_feature=19 293 47 115 76 816 338 114 130
split_gain=265.506 71.913 46.4562 28.7168 20.599 14.8905 10.3217 6.9436 5.52632
threshold=0.24204389750957492 0.026835603639483455 0.10622787848114969 0.26923076923076933 0.011583078007082857 0.15472969781945636 0.15635504573583606 0.1012295112013817 0.1438410505652428
decision_type=2 2 10 2 8 8 2 10 10
left_child=3 2 4 6 -2 -6 -1 -8 -4
right_child=1 -3 8 -5 5 -7 7 -9 -10
leaf_value=0 0 0.00074249051119848724 0.00043070233264413726 -2.1368966879087048e-06 -0.0013905634096555467 0 0.0010903411890140215 0 -0.00032464665586460768
leaf_weight=8.3457434475421888 8.8149196505546552 15.304955989122389 13.664229497313501 16.703739106655121 99.25531579554081 5.8954665958881369 109.65279851853848 9.5407549291849119 7.8753075897693625
leaf_count=22 24 27 28 48 397 16 187 23 28
internal_value=0 -0.000783215 -0.000995762 0.000824319 -0.00121099 -0.00131398 0.000963394 0.00102655 0
internal_weight=0 150.81 135.505 144.243 113.966 105.151 127.539 119.194 21.5395
internal_count=800 520 493 280 437 413 232 210 56
is_linear=0
shrinkage=0.000853624


Tree=20
num_leaves=10
num_cat=0
split_feature=239 632 385 63 618 211 359 94 359
split_gain=274.596 39.2538 26.6113 23.026 20.0985 17.3648 11.6926 8.13074 6.72117
threshold=0.60681968927383434 0.60998776555061351 0.0058751364704221496 0.020816205069422725 0.97106802463531505 0.16723803868707196 7.5000000000000009 14.500000000000002 4.5000000000000009
decision_type=10 2 2 2 2 10 2 2 2
left_child=1 -1 4 -3 8 6 7 -5 -2
right_child=2 3 -4 5 -6 -7 -8 -9 -10
leaf_value=0.0002723639480636801 -0.00069511317707555997 0 0.0011421895744827093 -0.0013208436621478922 0.00068058559146152151 0 0 0 0
leaf_weight=13.634241864085196 10.886374935507776 10.285455569624899 87.985687807202339 104.09029775857925 39.891448378562927 5.8546752333641043 3.4194761216640464 2.6949932575225821 14.388934925198553
leaf_count=30 40 26 146 415 79 14 8 7 35
internal_value=0 -0.000878849 0.000811489 -0.00103968 0.000276701 -0.00115121 -0.00123028 -0.00128215 -0.000205656
internal_weight=0 139.979 153.152 126.345 65.1668 116.059 110.205 106.785 25.2753
internal_count=800 500 300 470 154 444 430 422 75
is_linear=0
shrinkage=0.000879128


Tree=21
num_leaves=10
num_cat=0
split_feature=238 724 379 5 235 486 780 138 229
split_gain=270.752 47.2215 39.3005 15.3661 13.7315 10.9164 7.26443 6.40547 6.25799
threshold=0.63911494612693798 0.19265529513359073 0.049371182918548591 1.1153846153846156 0.70864111185073864 0.47164725565076865 1.0037689208984377 0.59918886423110973 33.500000000000007
decision_type=10 2 8 2 10 10 10 8 2
left_child=2 4 -1 -3 5 -2 -6 -4 -9
right_child=1 3 7 -5 6 -7 -8 8 -10
leaf_value=4.9226062384647571e-05 -0.00078914875674672088 0 0 0.0011104091124152329 0.0007010321205465778 4.0624471006548816e-05 0 -0.0014299019170752826 0
leaf_weight=13.180449157953261 21.387717634439472 14.407884433865545 2.9332561939954775 111.0734905898571 22.811502933502201 9.9933477789163572 4.927299201488494 89.298327088356018 3.4201336950063697
leaf_count=32 77 37 8 193 44 23 16 360 10
internal_value=0 0.000680891 -0.00113514 0.000995926 0 -0.000403931 0.000453148 -0.00134246 -0.00138387
internal_weight=0 184.601 108.832 125.481 59.1199 31.3811 27.7388 95.6517 92.7185
internal_count=800 390 410 230 160 100 60 378 370
is_linear=0
shrinkage=0.000921286


Tree=22
num_leaves=10
num_cat=0
split_feature=124 51 35 770 180 121 759 136 35
split_gain=275.474 68.1933 18.1952 13.5877 12.3492 8.80212 7.31173 4.96206 7.91391
threshold=0.28685162961483007 0.58824747935245214 0.3982840776443482 -0.1394230769230769 0.081311464309692397 0.12106973026634685 2.5000000000000004 0.059356351587645385 0.026122336275875572
decision_type=2 8 2 2 2 8 2 8 2
left_child=1 2 3 -1 7 -5 -3 -2 -9
right_child=4 6 -4 5 -6 -7 -8 8 -10
leaf_value=0 0.00019894064446765995 0.00057782000693598471 0 -0.0012714191070123885 0 0 -4.5055178598212291e-05 0 0.001131024158729502
leaf_weight=10.016137033700941 19.429529219865799 21.627684459090236 4.8432253599166861 105.00620950758457 12.169921264052389 7.3133686333894721 8.3690979182720167 4.4076616168022147 99.24738721549511
leaf_count=29 44 43 10 418 32 22 26 12 164
internal_value=0 -0.000769757 -0.00105111 -0.00112122 0.000901765 -0.00120657 0.000279788 0.000982803 0.00108168
internal_weight=0 157.176 127.179 122.336 135.254 112.32 29.9968 123.085 103.655
internal_count=800 548 479 469 252 440 69 220 176
is_linear=0
shrinkage=0.000865418


Tree=23
num_leaves=10
num_cat=0
split_feature=21 621 21 13 80 27 80 13 636
split_gain=255.104 47.3402 33.3961 24.614 12.5511 11.9765 6.23956 5.76061 5.75644
threshold=0.070749610289949097 0.016088209743785612 0.20688520003526709 0.62014999985694896 0.32147377729415899 0.16843976825475696 0.54825368523597728 0.13232247531414035 0.0039556250863671304
decision_type=8 10 10 2 2 10 2 2 10
left_child=1 3 4 5 -2 -1 -4 -6 -3
right_child=2 8 6 -5 7 -7 -8 -9 -10
leaf_value=0.0014514641947285056 -0.00060246458018341545 -0.00064759490274670717 -0.0013318035874139659 0 0.00087927463970806331 0.00030187531186787317 0 0 4.693274702872562e-06
leaf_weight=91.672379612922668 27.48980088531971 13.964539393782617 89.683730140328407 8.9873230159282667 7.6020063459873226 23.911120772361755 7.0127307921648017 12.681088045239447 8.5714151710271818
leaf_count=369 56 26 145 21 31 76 17 32 27
internal_value=0 0.000898393 -0.000925248 0.00114052 -0.000123929 0.00126551 -0.00125983 0.000303466 -0.000224971
internal_weight=0 147.107 144.469 124.571 47.7729 115.584 96.6965 20.2831 22.536
internal_count=800 519 281 466 119 445 162 63 53
is_linear=0
shrinkage=-0.000982382


Tree=24
num_leaves=10
num_cat=0
split_feature=85 44 134 56 385 47 148 750 621
split_gain=319.246 57.574 39.2938 18.5532 5.53891 4.54624 7.67255 2.56312 1.89799
threshold=0.44793799519538885 0.037459541112184531 0.18128347396850589 5.562421987140266 0.0056611234322190293 0.096096724271774306 0.037805873900651939 0.76428416371345531 0.0030435239709605739
decision_type=10 10 10 10 2 10 10 10 10
left_child=1 3 4 -1 7 6 -4 -2 -3
right_child=2 8 5 -5 -6 -7 -8 -9 -10
leaf_value=0.0012887822725441184 -0.00060723349528885875 -0.00049085488995695339 0.00084298883330167899 8.6191370919267745e-06 -0.0012259207044509049 -0.00014323072369652572 0 0 0
leaf_weight=103.19234280288219 48.566614732146263 9.739762023091318 10.17137384414673 16.331117644906044 82.039053201675415 6.5600770711898795 3.6341141611337653 3.1900510489940634 8.8177070170640928
leaf_count=415 99 18 39 49 127 13 7 9 24
internal_value=0 0.000929564 -0.000842713 0.00115212 -0.00101276 7.65739e-05 0.000450288 -0.000558958 -0.000269534
internal_weight=0 138.081 154.161 119.523 133.796 20.3656 13.8055 51.7567 18.5575
internal_count=800 506 294 464 235 59 46 108 42
is_linear=0
shrinkage=-0.000853168


Tree=25
num_leaves=10
num_cat=0
split_feature=724 43 623 358 300 80 358 724 310
split_gain=222.025 95.3443 24.8931 18.3517 15.1376 12.3851 8.78665 5.79662 5.32251
threshold=0.17903155833482745 0.034142360091209419 0.30932745337486273 3.5000000000000004 0.036459241993725307 0.55597802996635448 4.5000000000000009 0.033277651295065887 0.16025641025641027
decision_type=2 10 2 2 2 2 2 2 2
left_child=1 2 4 8 6 -5 -1 -3 -2
right_child=3 7 -4 5 -6 -7 -8 -9 -10
leaf_value=0.0012432120863369658 0.00021658936902103036 0 0 -0.00097755208519834081 0 0 4.1299433487103796e-05 -0.00070978838107460301 -0.00043862017240333664
leaf_weight=98.699165835976601 13.461047768592836 7.8534713536500957 9.479021951556204 100.95322208106518 2.669593632221221 11.694753706455229 11.780818372964857 22.431935325264931 12.241365149617193
leaf_count=403 43 22 23 174 5 30 36 41 23
internal_value=0 0.000667024 0.00099517 -0.00074597 0.00110217 -0.000887055 0.00115439 -0.000513985 0
internal_weight=0 152.914 122.629 138.35 113.15 112.648 110.48 30.2854 25.7024
internal_count=800 530 467 270 444 204 439 63 66
is_linear=0
shrinkage=-0.000814522


Tree=26
num_leaves=10
num_cat=0
split_feature=237 17 486 48 192 116 630 630 146
split_gain=233.524 47.3497 40.072 19.4196 17.991 17.0436 9.92344 9.50679 9.36929
threshold=0.13650117814540866 0.04685278236865998 0.38239164009008347 0.50055217742919933 0.26209200918674475 0.4428713025767364 0.97339382767677318 0.97437036037445079 0.0113731416512588
decision_type=10 2 10 10 10 10 2 2 10
left_child=2 5 4 6 -1 7 -3 -2 -8
right_child=1 3 -4 -5 -6 -7 8 -9 -10
leaf_value=0.0016234510649535564 -0.001410968585087188 0 0 -0.00097990774100563524 0 0 0.0011783385878920475 -0.00023596585028762051 0
leaf_weight=88.609174162149429 95.878847762942314 16.602548971772194 18.389971494674683 12.742785438895224 4.0827967226505271 7.3447163701057425 20.624519497156147 22.974285662174225 4.1438936293125144
leaf_count=359 159 42 48 21 9 22 78 53 9
internal_value=0 -0.000771176 0.00122539 0 0.00151529 -0.00113368 0.000448087 -0.00123739 0.000872994
internal_weight=0 180.312 111.082 54.1137 92.692 126.198 41.371 118.853 24.7684
internal_count=800 384 416 150 368 234 129 212 87
is_linear=0
shrinkage=-0.00109265


Tree=27
num_leaves=10
num_cat=0
split_feature=359 252 901 113 179 13 107 136 192
split_gain=228.294 53.8784 27.4594 21.8669 18.0766 14.8568 6.42475 5.48332 4.9341
threshold=1.5000000000000002 0.027143026702106002 1.0000000180025095e-35 0.065468709915876402 0.099929586052894606 1.0271217823028567 1.003831744194031 0.054675158761496492 0.53186780214309703
decision_type=2 10 2 10 10 2 8 8 10
left_child=2 4 6 8 -2 -5 -1 -6 -3
right_child=1 3 -4 5 7 -7 -8 -9 -10
leaf_value=0.0013776891270251303 0 0 0 0.0012539441288444031 -6.8178559550184138e-05 0 0 -0.0012096809481629185 -0.00077382502198802426
leaf_weight=87.607607990503311 10.963641718029974 14.596516385674478 18.260191723704338 18.4261097162962 14.290094360709189 4.3246220946311942 2.6907222867012015 107.12986512482166 12.284048691391943
leaf_count=353 31 40 51 73 33 8 7 183 21
internal_value=0 -0.000680057 0.00111397 0.000109352 -0.00100933 0.000849353 0.00133234 -0.00111877 -0.000365919
internal_weight=0 182.015 108.559 49.6313 132.384 22.7507 90.2983 121.42 26.8806
internal_count=800 389 411 142 247 81 360 216 61
is_linear=0
shrinkage=-0.000987823


Tree=28
num_leaves=10
num_cat=0
split_feature=0 485 194 198 92 194 0 220 198
split_gain=398.054 25.5269 24.6443 9.44032 6.43257 4.9205 2.60879 2.40644 2.03899
threshold=0.57409575581550609 0.22649572649572652 0.47811532020568853 0.11085166037082674 3.5000000000000004 0.39905098080635076 0.66035321354866039 0.011821401771157982 0.16328272223472598
decision_type=10 2 8 10 2 10 10 2 10
left_child=2 4 3 5 -2 7 -3 -1 -4
right_child=1 6 8 -5 -6 -7 -8 -9 -10
leaf_value=0 0.0014529570913759599 -0.00029032289351246934 -0.0013369876316605838 0.00023785935387538975 0 0 0.0003899877632254375 -0.00077853611129318769 -0.00014706926963356761
leaf_weight=5.6316420733928672 108.39349587261677 7.2758074700832358 101.17211797833443 10.26762719452381 5.1184116601943961 5.1328009665012351 8.3259815126657468 29.402477726340294 11.410677671432493
leaf_count=15 434 14 161 34 15 15 30 57 25
internal_value=0 0.0012461 -0.000998683 -0.000288014 0.00140224 -0.000540757 0 -0.000674433 -0.00126336
internal_weight=0 129.114 163.017 50.4345 113.512 40.1669 15.6018 35.0341 112.583
internal_count=800 493 307 121 449 87 44 72 186
is_linear=0
shrinkage=-0.00096265


Tree=29
num_leaves=10
num_cat=0
split_feature=124 175 190 190 130 366 124 745 146
split_gain=260.709 59.3725 18.4265 11.8213 10.0884 8.16548 9.71888 7.6849 7.39539
threshold=0.28685162961483007 0.19665874540805819 0.08947401121258737 0.45870712399482733 0.16879565268754962 0.0052285817759655925 0.10708089917898179 0.10619433596730234 0.0027071187981220078
decision_type=2 10 8 8 10 8 2 8 8
left_child=1 5 -2 7 8 6 -1 -3 -4
right_child=2 3 4 -5 -6 -7 -8 -9 -10
leaf_value=-0.0012573742509198631 0 0 0 0.00049936741893027319 0 0 -0.00010610826049685866 -0.00061527034219347398 0.0010547558986342418
leaf_weight=84.364600539207458 8.0736942291259748 14.377028897404669 3.1641722917556754 18.616728246212006 14.348407208919523 4.3940559029579154 14.585820049047468 19.935436517000198 109.05326463282108
leaf_count=344 25 37 9 37 35 12 46 72 183
internal_value=0 -0.000724535 0.00084941 0 0.00093089 -0.00108649 -0.00113491 -0.000288393 0.00101817
internal_weight=0 156.274 134.64 52.9292 126.566 103.344 98.9504 34.3125 112.217
internal_count=800 548 252 146 227 402 390 109 192
is_linear=0
shrinkage=0.000835555


Tree=30
num_leaves=10
num_cat=0
split_feature=88 467 235 25 198 25 277 51 148
split_gain=271.371 38.8272 25.2364 10.0112 6.57952 6.23505 6.16279 4.71481 4.16236
threshold=0.57617184519767772 -1.0000000180025095e-35 0.6142030954360963 0.1811824440956116 0.16328272223472598 0.38777293264865881 59.000000000000007 0.51064916704313534 0.026820701546967033
decision_type=10 2 10 10 10 10 2 10 10
left_child=1 -1 3 8 -4 6 -3 -5 -2
right_child=2 5 4 7 -6 -7 -8 -9 -10
leaf_value=0 -0.00067767215620655869 -0.0011877866126023258 0.00092812882961296856 0 1.0587513871641042e-05 0 0 0.00061322742996623529 0
leaf_weight=22.1659926623106 10.059834927320479 94.124544396996498 113.56610617041588 8.2732680588960665 15.054073810577391 5.367630496621131 2.9397514909505835 16.077158391475677 3.124542608857154
leaf_count=59 39 381 201 24 36 16 8 29 7
internal_value=0 -0.0008963 0.000683226 0 0.000853771 -0.00110459 -0.00115231 0.000376024 -0.000432788
internal_weight=0 124.598 166.155 37.5348 128.62 102.432 97.0643 24.3504 13.1844
internal_count=800 464 336 99 237 405 389 53 46
is_linear=0
shrinkage=0.00081567


Tree=31
num_leaves=10
num_cat=0
split_feature=20 129 563 110 660 632 20 748 110
split_gain=279.665 52.1585 33.2425 19.0808 10.5495 12.086 7.42446 5.91731 5.72521
threshold=0.048953920602798469 1.5000000000000002 1.0000000180025095e-35 0.098828945308923735 3.6153846153846159 0.48398576676845556 0.19880454242229464 0.025552782230079178 0.072531968355178847
decision_type=2 2 2 10 2 2 2 10 10
left_child=1 2 -1 7 5 -4 -5 -2 -3
right_child=3 8 4 6 -6 -7 -8 -9 -10
leaf_value=0 0 0.00036935450364486026 0 -0.00065931614961791307 0 -0.0013815982482675401 0.00052428004170192275 0.0011752655717509411 -0.00024483795404361752
leaf_weight=24.348522081971169 4.8328693509101859 25.85172475874424 5.5683114677667609 5.6861638724803907 3.8706344962120047 93.387193456292152 6.9365119338035583 106.63015125691891 12.824987202882765
leaf_count=66 12 59 15 23 10 385 11 176 43
internal_value=0 -0.000753719 -0.00103061 0.00101526 -0.00125041 -0.00130669 0 0.00113162 5.43216e-05
internal_weight=0 165.851 127.175 124.086 102.826 98.9555 12.6227 111.463 38.6767
internal_count=800 578 476 222 410 400 34 188 102
is_linear=0
shrinkage=0.000898469


Tree=32
num_leaves=10
num_cat=0
split_feature=3 23 23 136 664 230 3 196 726
split_gain=300.656 34.1467 31.7458 10.3679 10.1143 5.95131 4.88433 6.87017 3.7501
threshold=0.67919871211051952 0.024869650602340702 0.50655022263526928 0.071263482575992951 3.5000000000000004 0.73174160718917858 0.59262248873710643 0.015606777103433377 0.097233964948202661
decision_type=10 2 2 8 2 2 10 8 8
left_child=1 3 4 -1 -2 8 -3 -8 -5
right_child=2 6 -4 5 -6 -7 7 -9 -10
leaf_value=0.00062773703072589401 0.0014205147821411905 -0.0012387823988875923 0 0 0 4.2182241660404061e-08 8.5100448800817251e-05 -0.00071742363327678043 -0.0008199678806895598
leaf_weight=11.729712054133413 102.27333304286003 104.85413278639317 15.445139229297636 7.0587099194526735 4.1411686092615119 4.1694884598255149 6.8558998852968243 13.424674689769743 18.988147497177124
leaf_count=42 416 176 40 19 11 15 22 24 35
internal_value=0 -0.000866734 0.00116899 0 0.00135982 -0.000381054 -0.00112391 -0.000245888 -0.000611596
internal_weight=0 167.081 121.86 41.9461 106.415 30.2163 125.135 20.2806 26.0469
internal_count=800 333 467 111 427 69 222 46 54
is_linear=0
shrinkage=-0.000993667


Tree=33
num_leaves=10
num_cat=0
split_feature=104 178 178 809 290 755 82 290 82
split_gain=226.107 40.4067 32.4958 16.8287 16.1558 15.4565 9.00668 11.888 6.72922
threshold=0.17422778904438022 0.54485881328582775 0.20305443555116656 1.0000000180025095e-35 0.010519616771489384 0.67948717948717963 0.4057945460081101 0.0051830308511853227 0.86512014269828807
decision_type=2 10 10 10 2 2 2 2 2
left_child=1 3 4 5 -2 -1 -4 -8 -7
right_child=2 -3 6 -5 -6 8 7 -9 -10
leaf_value=0 0.00042359040802300921 -0.00014062832336468262 -0.00084503725043891871 0 -0.0005926299994574414 0.00099372349856358339 0.00030391843568104726 -0.00052051355560590201 0
leaf_weight=8.7569135874509794 19.570922270417217 19.374618217349052 98.555275067687035 9.6884572803974134 8.809466138482092 93.706452488899231 7.3717495203018215 17.940666571259499 5.9892692863941184
leaf_count=24 66 46 168 26 13 379 26 33 19
internal_value=0 0.00063743 -0.000583162 0.000793989 0 0.000871252 -0.000735646 -0.000149818 0.000947403
internal_weight=0 137.516 152.248 118.141 28.3804 108.453 123.868 25.3124 99.6957
internal_count=800 494 306 448 79 422 227 59 398
is_linear=0
shrinkage=-0.000695428


Tree=34
num_leaves=10
num_cat=0
split_feature=4 4 316 685 384 675 368 220 271
split_gain=399.141 20.6817 13.5197 8.95442 6.50365 4.84137 4.82582 3.26109 2.77374
threshold=0.57372117042541515 0.40752017498016363 0.4428713025767364 0.029495657421648506 0.011856670491397383 0.11447931081056596 0.0099990502931177633 0.0054474482312798509 0.010324563512688007
decision_type=10 8 8 8 10 2 2 2 8
left_child=1 7 5 -2 -4 -3 -5 -1 -6
right_child=3 2 4 6 8 -7 -8 -9 -10
leaf_value=0 0 -0.00053706363485207494 0 -0.0012236099594879373 0 9.5367654444786771e-05 0 0.0011511521963309518 0.00085933230330857702
leaf_weight=0.490428626537322 4.11817267537117 10.02680352330208 7.60728895664215 116.74465231597424 2.6567614525556555 10.140004009008406 3.3977322280406943 102.52436980605125 31.677068561315536
leaf_count=2 11 37 21 468 7 22 10 166 56
internal_value=0 0.00087856 0.000355963 -0.00115205 0.000640964 -5.04977e-05 -0.00119429 0.00113839 0.000792753
internal_weight=0 165.123 62.1079 124.261 41.9411 20.1668 120.142 103.015 34.3338
internal_count=800 311 143 489 84 59 478 168 63
is_linear=0
shrinkage=0.00086283


Tree=35
num_leaves=10
num_cat=0
split_feature=21 27 14 142 338 21 27 141 841
split_gain=241.293 41.6624 37.5456 26.0461 11.5549 9.87649 7.00296 8.01804 6.2207
threshold=0.070749610289949097 0.19126749783754352 0.045206436887383468 0.0084002804942429083 0.63733762502670299 0.21982658016550549 0.11873282492160799 0.0032916280844576475 1.0000000180025095e-35
decision_type=8 10 2 2 2 10 8 10 10
left_child=1 3 5 -1 8 -2 -4 -8 -5
right_child=2 -3 6 4 -6 -7 7 -9 -10
leaf_value=0 -0.00060774770225667757 8.6477147840433383e-05 3.1052033602742578e-05 -0.0011100880424787904 0 0.00023729931098789749 0 0.00099168057886056971 0
leaf_weight=19.872656151652336 11.481507137417795 24.69045652449131 14.511246994137762 93.238942742347717 5.5919779539108267 10.622944906353949 6.3279533833265296 100.85440464317799 2.904454603791236
leaf_count=56 43 62 34 378 15 22 16 166 8
internal_value=0 -0.000678781 0.000697787 -0.000863413 -0.00101625 -6.22891e-05 0.00086496 0.000940321 -0.00107674
internal_weight=0 146.298 143.798 121.608 101.735 22.1045 121.694 107.182 96.1434
internal_count=800 519 281 457 401 65 216 182 386
is_linear=0
shrinkage=0.000760568


Tree=36
num_leaves=9
num_cat=0
split_feature=0 144 45 301 356 45 0 0
split_gain=395.683 31.0462 26.1305 19.9562 7.19208 6.57003 2.40006 1.50034
threshold=0.57409575581550609 0.19156934320926669 0.20174924284219745 0.16174733937570587 1.5278498967538241 0.036414949223399169 0.65173012018203746 0.3989002406597138
decision_type=10 2 10 10 10 8 8 10
left_child=1 5 3 4 -2 -1 -4 -3
right_child=2 7 6 -5 -6 -7 -8 -9
leaf_value=0 -0.0014619503927267223 0 0.00041749841997608259 0 0 0.0011362879302155163 -0.00027406426791615657 -0.0004654014310999074
leaf_weight=9.4826634824275953 109.63760536909103 3.6664475351572019 5.5728663653135282 3.6210879683494559 2.6916321963071814 142.98231172561646 7.5772790312767029 6.8671012967824936
leaf_count=23 443 9 9 7 7 249 27 26
internal_value=0 0.000968952 -0.00121014 -0.00134962 -0.00142547 0.00108385 0 -0.000227418
internal_weight=0 162.999 129.1 115.95 112.329 152.465 13.1501 10.5335
internal_count=800 307 493 457 450 272 36 35
is_linear=0
shrinkage=0.000937225


Tree=37
num_leaves=10
num_cat=0
split_feature=237 253 378 730 220 236 716 110 354
split_gain=213.965 46.918 31.1889 16.069 15.4657 12.9151 7.76667 4.60875 4.39546
threshold=0.13650117814540866 0.16999311000108722 0.10619827359914781 0.65865384615384626 0.0059462753124535092 0.24181111317700402 1.0000000180025095e-35 0.060671657323837287 2.5000000000000004
decision_type=10 10 8 2 2 10 8 10 2
left_child=2 4 -1 -3 -2 -4 8 -5 -6
right_child=1 3 5 7 6 -7 -8 -9 -10
leaf_value=0 9.7268762772139414e-05 0.00082282314655336111 0.0012586872036518737 -0.00054596775580432859 0 0 -0.0011184996488509977 0 -0.00063307064678648679
leaf_weight=17.608958393335342 4.653189852833747 17.580876156687737 81.791838869452477 11.950899615883825 20.390539959073067 10.376064315438269 77.37570632994175 3.9156389981508246 43.152224257588387
leaf_count=47 17 66 338 22 52 31 127 14 86
internal_value=0 -0.000590222 0.000942953 0.000233792 -0.00080957 0.00114289 -0.000870871 -0.000201186 -0.000475194
internal_weight=0 179.019 109.777 33.4474 145.572 92.1679 140.918 15.8665 63.5428
internal_count=800 384 416 102 282 369 265 36 138
is_linear=0
shrinkage=-0.00087225


Tree=38
num_leaves=10
num_cat=0
split_feature=87 132 179 845 87 780 793 144 750
split_gain=235.321 55.4741 30.0415 13.2915 11.6386 10.4527 7.95322 6.85596 6.6873
threshold=0.17392160743474963 0.17512265592813495 0.1616495028138161 -0.8076923076923076 0.34463982284069067 1.0018059611320498 1.0000000180025095e-35 0.021049411036074165 0.76472932100296032
decision_type=10 10 10 2 10 10 2 2 8
left_child=2 4 3 6 -2 -4 -1 -3 -6
right_child=1 7 5 -5 8 -7 -8 -9 -10
leaf_value=-0.001080660973035675 0.00010830814257502883 0 7.0633207711864716e-05 0 0.00089285370194569643 -0.0005432070503776545 0 -0.00056504741430698309 0
leaf_weight=77.966014876961708 25.439351677894592 9.4770436286926287 24.272610992193222 2.6329426914453498 108.15985891222954 17.725166693329811 2.6688655465841284 16.252350732684135 6.3429256230592719
leaf_count=320 61 23 62 5 183 65 7 58 16
internal_value=0 0.000560956 -0.000730337 -0.000983808 0.000745071 -0.000122558 -0.00103969 -0.000292375 0.00085116
internal_weight=0 165.672 125.266 83.2678 139.942 41.9978 80.6349 25.7294 114.503
internal_count=800 341 459 332 260 127 327 81 199
is_linear=0
shrinkage=0.000716709


Tree=39
num_leaves=10
num_cat=0
split_feature=237 71 45 27 25 625 126 801 237
split_gain=208.969 50.8389 38.4517 32.5146 21.5706 13.0739 12.3005 5.26186 5.25213
threshold=0.13650117814540866 1.0000000180025095e-35 0.07477979734539987 0.176387794315815 0.1748599857091904 0.97761690616607677 0.41494265590982354 0.0031289889365428538 0.41400161385536199
decision_type=10 10 8 10 10 2 8 10 8
left_child=3 2 -2 5 8 7 -6 -1 -4
right_child=1 -3 4 -5 6 -7 -8 -9 -10
leaf_value=-0.0012230334865962974 -0.00072848104442766891 0.0011642420716468553 -0.00058512313924370793 0 0 0 0.00081239327018108932 0 1.9505617494033245e-05
leaf_weight=79.909234538674355 20.510535955429077 61.618994534015656 8.5614560097455961 17.575204372406006 8.2822692394256574 7.9178601652383795 60.636838302016258 4.0590181499719611 19.14062632620335
